svm_type one_class
kernel_type rbf
gamma 0.333333
nr_class 2
total_sv 24
rho 5.47411
SV
1 1:-1 2:1 3:0.588999 
0.2387636664951792 1:-1 2:-0.999625 3:0.555144 
0.2540311540677243 1:-1 2:1 3:0.578384 
1 1:-1 2:-0.999625 3:0.600647 
1 1:1 2:-0.999625 3:-0.819846 
1 1:-1 2:1 3:1 
0.2391325105136917 1:1 2:-0.999625 3:0.506406 
0.2911579563617581 1:-1 2:-0.999625 3:-0.726243 
1 1:1 2:-0.999625 3:0.553338 
1 1:1 2:1 3:-0.877602 
1 1:-1 2:-0.999625 3:-0.860585 
0.07983279276105297 1:1 2:-0.999625 3:-0.723548 
0.2515901401553327 1:-1 2:1 3:-0.694626 
0.3692048734252215 1:1 2:1 3:-0.823727 
1 1:1 2:1 3:0.595406 
1 1:-1 2:1 3:-0.713722 
1 1:1 2:1 3:0.495126 
1 1:1 2:-1 3:-0.775542 
1 1:1 2:1 3:-0.993158 
0.1782869062200408 1:1 2:1 3:0.494298 
1 1:1 2:-1 3:0.561683 
1 1:-1 2:1 3:-0.74862 
1 1:-1 2:-1 3:-0.829835 
1 1:-1 2:-0.999625 3:0.757222 
