svm_type one_class
kernel_type rbf
gamma 0.01
nr_class 2
total_sv 1455
rho 0.0789975
SV
0.04103669371690488 1:1 2:70408.405 3:410921 
0.04027114979456197 1:1 2:70408.405 3:410783 
0.03338997671234153 1:1 2:70408.405 3:410953 
0.03404454044928705 1:1 2:32162.026 3:410948 
0.03924558493491022 1:0 2:210306.16 3:410912 
0.04639130053851338 1:1 2:233234.34 3:411187 
0.0335466986720195 1:0 2:210306.16 3:411144 
0.03809211390837322 1:0 2:210306.16 3:411210 
0.02233233101335513 1:1 2:32162.026 3:411051 
0.0435111157162077 1:1 2:32162.026 3:411144 
0.04162914659702336 1:0 2:224918.01 3:411160 
0.02671906534160323 1:1 2:32162.026 3:410941 
0.04879393865082378 1:1 2:233234.34 3:411163 
0.03980684341699851 1:0 2:210306.16 3:411153 
0.04144241012118296 1:1 2:113344.41 3:411196 
0.0496301947121564 1:1 2:233234.34 3:411067 
0.03982977339173591 1:1 2:53442.595 3:411051 
0.04560922128176926 1:1 2:113344.41 3:411029 
0.04213742649515174 1:1 2:233234.34 3:410972 
0.04013934376859598 1:1 2:53442.595 3:411328 
0.02051319052912686 1:1 2:233234.34 3:410910 
0.01910916653525709 1:1 2:233234.34 3:410913 
0.04563947341249911 1:0 2:224918.01 3:411002 
0.03609504505193223 1:1 2:70408.405 3:410961 
0.04353327371824688 1:0 2:224918.01 3:410958 
0.03083948434131713 1:1 2:32162.026 3:411045 
0.04133850625796828 1:1 2:110725.23 3:410815 
0.04384446574677579 1:1 2:233234.34 3:411017 
0.008393584492701816 1:1 2:70408.405 3:410792 
0.03628751897555349 1:1 2:70408.405 3:410808 
0.0170920296758019 1:0 2:210306.16 3:411381 
0.01781849212499671 1:1 2:113344.41 3:411298 
0.03772625680605382 1:0 2:224918.01 3:410840 
0.0008572736390108356 1:1 2:110725.23 3:411303 
0.003418894225370534 1:1 2:32162.026 3:411292 
0.06832276687760733 1:1 2:70408.405 3:410740 
0.06725497765647846 1:1 2:53442.595 3:410715 
0.04193678038630968 1:1 2:113344.41 3:410746 
0.00902737020727698 1:1 2:70408.405 3:410894 
0.04349902025163544 1:1 2:113344.41 3:411224 
0.01700809707420889 1:0 2:224918.01 3:411357 
0.06323248067802725 1:1 2:53442.595 3:411355 
0.009369866075209643 1:1 2:53442.595 3:411302 
0.03992688289757441 1:1 2:110725.23 3:410833 
0.008404105410536926 1:1 2:53442.595 3:410875 
0.002531966854912679 1:1 2:32162.026 3:411293 
0.03869505466650597 1:0 2:541088.07 3:411269 
0.07025579445732757 1:1 2:70408.405 3:411382 
0.004254108447971611 1:1 2:110725.23 3:411252 
0.03499264847426029 1:1 2:70408.405 3:410753 
0.05297045549970239 1:1 2:233234.34 3:410762 
0.01021440048520827 1:1 2:70408.405 3:410790 
0.001181568500167729 1:0 2:541088.07 3:410813 
0.03464685288274078 1:0 2:541088.07 3:411253 
0.01597074909403079 1:1 2:110725.23 3:410735 
0.05722682089065222 1:0 2:210306.16 3:411350 
0.06328176167466845 1:1 2:32162.026 3:411407 
0.07898142302514286 1:0 2:541088.07 3:410696 
0.04962264989143247 1:0 2:210306.16 3:411389 
0.05148698206111355 1:1 2:53442.595 3:411342 
0.01530441684315038 1:1 2:113344.41 3:410879 
0.06751610164887978 1:0 2:224918.01 3:410731 
0.0128304096994514 1:1 2:113344.41 3:410817 
0.0346195697510847 1:1 2:70408.405 3:410800 
0.04235666803764596 1:0 2:210306.16 3:411290 
0.06837013740263216 1:1 2:113344.41 3:410734 
0.01058006226969987 1:1 2:113344.41 3:410766 
0.002285912685982858 1:0 2:210306.16 3:410814 
0.02625293222841965 1:1 2:233234.34 3:410806 
0.008976533525446341 1:1 2:53442.595 3:410820 
0.001612215450394307 1:1 2:70408.405 3:411292 
0.01791463649356037 1:1 2:233234.34 3:410825 
0.03266478755317358 1:1 2:32162.026 3:410834 
0.0433362518706569 1:0 2:224918.01 3:411328 
0.03557649521432011 1:0 2:210306.16 3:411338 
0.01167046800267329 1:1 2:233234.34 3:410839 
0.07367365396722513 1:1 2:32162.026 3:410690 
0.03442890628488601 1:1 2:113344.41 3:410809 
0.007291137009524669 1:1 2:32162.026 3:410843 
0.02727283372304172 1:0 2:210306.16 3:411281 
0.01016134592696846 1:1 2:113344.41 3:410892 
0.03326535145871213 1:1 2:53442.595 3:410770 
0.02709138628151806 1:0 2:210306.16 3:410766 
0.0006173112853257802 1:0 2:541088.07 3:410864 
0.04469135332924443 1:0 2:541088.07 3:410846 
0.03674791971119174 1:1 2:70408.405 3:411335 
0.01908656647786194 1:1 2:113344.41 3:411376 
0.04772001322261823 1:1 2:32162.026 3:410765 
0.005774832172005165 1:0 2:541088.07 3:410815 
0.03956574475202812 1:0 2:224918.01 3:411297 
0.008305125922785039 1:0 2:541088.07 3:410751 
0.03888279546476268 1:0 2:210306.16 3:411330 
0.0154676050538489 1:1 2:53442.595 3:410809 
0.01602519835379351 1:0 2:210306.16 3:410795 
0.02383681449000577 1:1 2:233234.34 3:411360 
0.007931544107613046 1:1 2:70408.405 3:411169 
0.03440335390373151 1:1 2:233234.34 3:410739 
0.003872627396922852 1:1 2:113344.41 3:410814 
0.05768001418518693 1:1 2:113344.41 3:411407 
0.0214150122845965 1:0 2:210306.16 3:411302 
0.02570796718029318 1:1 2:233234.34 3:411292 
0.0120701868833558 1:0 2:210306.16 3:410904 
0.008697469894100779 1:1 2:32162.026 3:410810 
0.001021479201596519 1:1 2:233234.34 3:410696 
0.007245832662777672 1:1 2:113344.41 3:411245 
0.007231969139977666 1:1 2:70408.405 3:411346 
0.0321994130967787 1:1 2:233234.34 3:411355 
0.03538458792887315 1:1 2:113344.41 3:410793 
0.01475982897236853 1:1 2:32162.026 3:410840 
0.009093084253061481 1:0 2:224918.01 3:411370 
0.07897412384837225 1:1 2:70408.405 3:411428 
0.005915945532132081 1:1 2:113344.41 3:411257 
0.03819271715377416 1:1 2:32162.026 3:411315 
0.05497977787458365 1:0 2:210306.16 3:411466 
0.003535041487986064 1:1 2:53442.595 3:410837 
0.007160721886228853 1:1 2:110725.23 3:411311 
0.03760322373495709 1:1 2:113344.41 3:410841 
0.03908806339833211 1:0 2:541088.07 3:410795 
0.005641600222135755 1:1 2:113344.41 3:411286 
0.0120766314219881 1:1 2:70408.405 3:411300 
0.002880460741038607 1:1 2:110725.23 3:411272 
0.06763399340105318 1:1 2:233234.34 3:410723 
0.00323217274794758 1:1 2:32162.026 3:410966 
0.008066693023187257 1:1 2:110725.23 3:410975 
0.03267496184993261 1:0 2:224918.01 3:411274 
0.009749449374761084 1:1 2:32162.026 3:411306 
0.03032349585163589 1:1 2:113344.41 3:411333 
0.03404390242458906 1:1 2:53442.595 3:411280 
0.04420841405098168 1:1 2:53442.595 3:410882 
0.07905877115199714 1:1 2:110725.23 3:410668 
0.0152067877237347 1:1 2:53442.595 3:411272 
0.07344663905040887 1:1 2:233234.34 3:410699 
0.06668384168135122 1:0 2:210306.16 3:410721 
0.007871045555799955 1:1 2:110725.23 3:411255 
0.03418649512009565 1:1 2:233234.34 3:410793 
0.002040531425752989 1:0 2:541088.07 3:411352 
0.07825753846348057 1:0 2:224918.01 3:411401 
0.00194313295780587 1:0 2:210306.16 3:411278 
0.007626306775977985 1:0 2:541088.07 3:411308 
0.03713799618254774 1:1 2:32162.026 3:410880 
0.0358486873134173 1:1 2:110725.23 3:411321 
0.01093602042385546 1:0 2:210306.16 3:411397 
0.06561585831586915 1:0 2:210306.16 3:411404 
0.0340087988609189 1:0 2:210306.16 3:410777 
0.008853128274534144 1:1 2:113344.41 3:410803 
0.009354746490342826 1:1 2:32162.026 3:411320 
0.00925954532674185 1:1 2:53442.595 3:410970 
0.0006478219638388974 1:1 2:110725.23 3:411223 
0.02696462352189389 1:1 2:113344.41 3:411323 
0.002754067013180719 1:1 2:110725.23 3:410788 
0.004639435181423741 1:1 2:233234.34 3:410873 
0.04891626186514546 1:0 2:224918.01 3:411308 
0.01087187867813367 1:0 2:210306.16 3:411280 
0.0009244749724158828 1:1 2:70408.405 3:410809 
0.01204242227695211 1:0 2:210306.16 3:410789 
0.001665075355741175 1:1 2:70408.405 3:411357 
0.0699309475697914 1:0 2:541088.07 3:411378 
0.004123179657678166 1:1 2:113344.41 3:411275 
0.01737684742300288 1:1 2:110725.23 3:411325 
0.04422498485811222 1:1 2:113344.41 3:411371 
0.07898746470309892 1:1 2:32162.026 3:411470 
0.02802800525920969 1:0 2:210306.16 3:410799 
0.003006795348190821 1:1 2:233234.34 3:411315 
0.008147147118419525 1:0 2:210306.16 3:411342 
0.04467892727382232 1:1 2:233234.34 3:411246 
0.06060318697571949 1:1 2:32162.026 3:411373 
0.03139023956308176 1:1 2:110725.23 3:410777 
0.008949567848975055 1:1 2:113344.41 3:411299 
0.03963328311419716 1:0 2:210306.16 3:410817 
0.002161030253179897 1:1 2:110725.23 3:411204 
0.009214763186510376 1:0 2:224918.01 3:411344 
0.009395610863296778 1:1 2:233234.34 3:410754 
0.02677442248139675 1:1 2:53442.595 3:411320 
0.002057293658016691 1:0 2:210306.16 3:411296 
0.06004747396389942 1:1 2:53442.595 3:411370 
0.01126692287273542 1:1 2:113344.41 3:411354 
0.01466701722349013 1:0 2:541088.07 3:411306 
0.005562085393715658 1:1 2:70408.405 3:411266 
0.002944822892510504 1:1 2:70408.405 3:411249 
0.01037801330994969 1:0 2:541088.07 3:411245 
0.001909677600775768 1:1 2:32162.026 3:411321 
0.006410124885586784 1:0 2:224918.01 3:410774 
0.03829945511404168 1:1 2:53442.595 3:410868 
0.03794351328584751 1:1 2:70408.405 3:410834 
0.009695630748357664 1:0 2:210306.16 3:411321 
0.04272565166364618 1:0 2:210306.16 3:411310 
0.0009327147054531484 1:1 2:53442.595 3:410902 
0.04106725321171405 1:1 2:70408.405 3:410852 
0.0005628875717957338 1:0 2:541088.07 3:411232 
0.02069189342424997 1:1 2:53442.595 3:411305 
0.01964977680386126 1:1 2:113344.41 3:410833 
0.002696234561740515 1:0 2:541088.07 3:411247 
0.007179747562718012 1:1 2:70408.405 3:411343 
0.0399585834838798 1:0 2:224918.01 3:410769 
0.03193469021371612 1:1 2:113344.41 3:410826 
0.03674490031668469 1:1 2:233234.34 3:411334 
0.04287101736267944 1:0 2:224918.01 3:411225 
0.0149603214231488 1:1 2:70408.405 3:411337 
0.001198165560781672 1:1 2:53442.595 3:410821 
0.04001398677273689 1:1 2:110725.23 3:410798 
0.008763381105209141 1:0 2:541088.07 3:410868 
0.007872129179642702 1:0 2:541088.07 3:411167 
0.0326711986926642 1:0 2:541088.07 3:411348 
0.001842367089322776 1:0 2:210306.16 3:410813 
0.05141036715338464 1:1 2:53442.595 3:410778 
0.003711352333149701 1:0 2:541088.07 3:410840 
0.04343353318272378 1:0 2:224918.01 3:411339 
0.01049239610176525 1:0 2:541088.07 3:411276 
0.006016946428126772 1:0 2:210306.16 3:411203 
0.006968855395554051 1:0 2:541088.07 3:410787 
0.02073801417407906 1:0 2:541088.07 3:410772 
0.01491878528621978 1:0 2:541088.07 3:411320 
0.03454494065466036 1:1 2:53442.595 3:410761 
0.01460159047568219 1:1 2:53442.595 3:411243 
0.006437120233428734 1:0 2:541088.07 3:411307 
0.04736843128088607 1:0 2:541088.07 3:411219 
0.001793787476081516 1:1 2:113344.41 3:410893 
0.0006030226536074337 1:0 2:224918.01 3:410964 
0.02660674369290832 1:0 2:210306.16 3:411259 
0.06739432861738059 1:1 2:110725.23 3:410725 
0.04133319323480077 1:1 2:110725.23 3:410884 
0.009931996121500017 1:0 2:224918.01 3:410812 
0.008164521016750977 1:0 2:210306.16 3:410870 
0.0382892703988464 1:0 2:541088.07 3:410885 
0.07530936129430182 1:1 2:32162.026 3:411438 
0.0561400290012498 1:1 2:113344.41 3:411418 
0.06677369077763573 1:0 2:224918.01 3:411381 
0.007718820477169326 1:0 2:224918.01 3:411295 
0.01061497612858942 1:0 2:210306.16 3:410936 
0.02629802437732616 1:1 2:110725.23 3:410859 
0.04256959302192364 1:0 2:224918.01 3:410753 
0.00168518267978136 1:0 2:541088.07 3:410931 
0.02129906614445402 1:1 2:70408.405 3:411217 
0.0112539243227694 1:0 2:541088.07 3:411293 
0.03844350322800216 1:1 2:233234.34 3:410817 
0.03991948010303647 1:1 2:113344.41 3:410965 
0.006882864963918118 1:1 2:53442.595 3:410942 
0.04322735515319012 1:1 2:53442.595 3:410856 
0.005635525276540731 1:1 2:70408.405 3:411151 
0.004814828129702685 1:1 2:53442.595 3:410892 
0.03887177055319641 1:1 2:113344.41 3:410767 
0.02649571725448288 1:1 2:113344.41 3:411383 
0.001422653105321983 1:0 2:224918.01 3:411272 
0.01046041141845548 1:0 2:224918.01 3:410831 
0.000830640929470168 1:1 2:70408.405 3:411233 
0.04528645241265854 1:1 2:113344.41 3:410756 
0.03369111950925392 1:0 2:224918.01 3:410813 
0.01389187770037624 1:1 2:53442.595 3:410824 
0.001684303238362653 1:0 2:541088.07 3:410849 
0.07505245647208339 1:1 2:233234.34 3:410682 
0.02029842105203126 1:0 2:210306.16 3:410921 
0.0344540835730854 1:1 2:70408.405 3:411348 
0.0009928701690747888 1:0 2:224918.01 3:410883 
0.007616432054950856 1:0 2:210306.16 3:410887 
0.001608676597380753 1:1 2:233234.34 3:410780 
0.01069614380513374 1:1 2:70408.405 3:410946 
0.002716117719734205 1:0 2:224918.01 3:410793 
0.008144327613942006 1:0 2:224918.01 3:410760 
0.03625363332370836 1:0 2:224918.01 3:410873 
0.04448824968946513 1:0 2:224918.01 3:410790 
0.04752869201936113 1:1 2:70408.405 3:411369 
0.02614325315467959 1:1 2:113344.41 3:410801 
0.005749263302952492 1:1 2:110725.23 3:410910 
0.01513555666335267 1:1 2:70408.405 3:410769 
0.01457154075466109 1:1 2:233234.34 3:411293 
0.003122123921087128 1:1 2:110725.23 3:411316 
0.0426027000811797 1:1 2:32162.026 3:411329 
0.003216654343498693 1:1 2:113344.41 3:411202 
0.04573240106273139 1:0 2:541088.07 3:411475 
0.05711828917931393 1:0 2:210306.16 3:411364 
0.02210405523548179 1:0 2:224918.01 3:410848 
0.03785862509237618 1:1 2:110725.23 3:411282 
0.01553636161499926 1:1 2:233234.34 3:410903 
0.01026916139488258 1:1 2:53442.595 3:411223 
0.02670772451435523 1:1 2:113344.41 3:410787 
0.007749339032437735 1:1 2:32162.026 3:410828 
0.01650781598391545 1:1 2:110725.23 3:410737 
0.04605429869051482 1:0 2:541088.07 3:410834 
0.0007968628832248149 1:1 2:233234.34 3:410854 
0.02088561574947207 1:1 2:70408.405 3:411250 
0.01246198353431856 1:0 2:210306.16 3:410760 
0.004302640864792264 1:1 2:53442.595 3:411193 
0.03392964425914614 1:0 2:541088.07 3:410749 
0.02971986378662961 1:1 2:53442.595 3:411248 
0.0009695124280255235 1:0 2:224918.01 3:411054 
0.008652973208517345 1:0 2:541088.07 3:410776 
0.006725576181815093 1:0 2:224918.01 3:410866 
0.04523458554814497 1:1 2:32162.026 3:411262 
0.0481346854506103 1:0 2:541088.07 3:411365 
0.03148118367713052 1:0 2:224918.01 3:410881 
0.01281540787731734 1:1 2:233234.34 3:410872 
0.0005367981777285591 1:1 2:32162.026 3:411276 
0.00123350629079131 1:1 2:53442.595 3:411338 
0.009837265653424403 1:1 2:110725.23 3:411234 
0.001290727689915817 1:1 2:32162.026 3:411156 
0.0009934405650462233 1:1 2:110725.23 3:411271 
0.03154265044988425 1:1 2:110725.23 3:410875 
0.03729476408748978 1:0 2:541088.07 3:410766 
0.0007446255464127106 1:1 2:70408.405 3:411248 
0.02784541504610414 1:0 2:224918.01 3:411319 
0.006906061729668038 1:0 2:224918.01 3:411317 
0.03158325940073548 1:1 2:110725.23 3:410806 
0.002718573139022858 1:1 2:233234.34 3:411236 
0.06926352037471917 1:0 2:541088.07 3:410737 
0.03647564073730595 1:1 2:233234.34 3:411274 
0.01809818283326943 1:0 2:541088.07 3:411334 
0.004725676767978901 1:0 2:224918.01 3:410761 
0.03868917206456117 1:1 2:110725.23 3:410867 
0.01951861764794762 1:0 2:541088.07 3:411147 
0.01630608956850176 1:0 2:541088.07 3:410755 
0.0410429783058507 1:0 2:224918.01 3:411365 
0.00169239694633759 1:0 2:210306.16 3:411277 
0.002059125515387353 1:1 2:32162.026 3:410905 
0.0009549603595240129 1:1 2:113344.41 3:410830 
0.03637321300891962 1:1 2:70408.405 3:410843 
0.00453468158716417 1:0 2:224918.01 3:410882 
0.001323868377941455 1:0 2:224918.01 3:411294 
0.001905977327820919 1:1 2:110725.23 3:411312 
0.003449267741929558 1:1 2:110725.23 3:411190 
0.03994808060867902 1:1 2:70408.405 3:410762 
0.0342980850164392 1:1 2:233234.34 3:410926 
0.01322325505068405 1:1 2:110725.23 3:411337 
0.0157203169931694 1:0 2:224918.01 3:410865 
0.02435395877747422 1:1 2:110725.23 3:411381 
0.03879069165234075 1:0 2:224918.01 3:410890 
0.001144940999739989 1:0 2:224918.01 3:410744 
0.003605060869716778 1:0 2:541088.07 3:410933 
0.01741430869385724 1:1 2:110725.23 3:411299 
0.01302490056128289 1:1 2:32162.026 3:410746 
0.005381665804474184 1:1 2:233234.34 3:411134 
0.0006367702884150714 1:1 2:32162.026 3:411274 
0.003524822708471469 1:0 2:541088.07 3:410878 
0.006335006041090544 1:1 2:70408.405 3:411280 
0.04045974282729892 1:1 2:113344.41 3:411291 
0.004456434591505215 1:0 2:224918.01 3:411276 
0.00741326684646452 1:0 2:541088.07 3:410814 
0.02470280455910618 1:0 2:224918.01 3:410832 
0.04129614882689371 1:0 2:210306.16 3:410807 
0.008837445163621173 1:1 2:113344.41 3:410895 
0.03814641998338834 1:1 2:53442.595 3:411232 
0.04731991887177205 1:0 2:224918.01 3:411238 
0.001558426961281733 1:1 2:110725.23 3:410843 
0.001158358652352186 1:1 2:110725.23 3:410876 
0.01258037527500339 1:1 2:32162.026 3:410841 
0.004505379022456284 1:0 2:541088.07 3:411132 
0.01035661983154744 1:1 2:32162.026 3:410797 
0.008209365383066505 1:0 2:541088.07 3:410971 
0.01121120432325209 1:1 2:32162.026 3:410904 
0.02555960286194449 1:0 2:210306.16 3:410834 
0.03887106308216855 1:1 2:53442.595 3:410803 
0.01465336590589925 1:0 2:541088.07 3:411228 
0.0009059024132070568 1:0 2:541088.07 3:411279 
0.03674002772808458 1:1 2:233234.34 3:410896 
0.003752887784470586 1:0 2:224918.01 3:410808 
0.006364873082471169 1:1 2:70408.405 3:411354 
0.04983964392699756 1:1 2:113344.41 3:411359 
0.00299391205774151 1:1 2:110725.23 3:411156 
0.01349891374282811 1:0 2:224918.01 3:411371 
0.047107902208053 1:0 2:541088.07 3:411469 
0.009064447027438475 1:1 2:32162.026 3:410888 
0.01533418786117204 1:0 2:541088.07 3:411259 
0.0346363773946913 1:1 2:53442.595 3:411312 
0.004006290260367367 1:1 2:110725.23 3:411189 
0.001445812411109303 1:1 2:113344.41 3:411243 
0.01237733921414208 1:1 2:70408.405 3:410751 
0.006818942125768259 1:1 2:53442.595 3:411318 
0.005897388777926033 1:1 2:70408.405 3:410913 
0.05187604866448226 1:1 2:233234.34 3:410774 
0.05030652199044696 1:1 2:53442.595 3:410753 
0.0008231733027172301 1:1 2:113344.41 3:410865 
0.003444584581977391 1:0 2:541088.07 3:411321 
0.03949489793202798 1:0 2:210306.16 3:411167 
0.02334937435566932 1:1 2:32162.026 3:410826 
0.0336836052243149 1:0 2:224918.01 3:410915 
0.01020608936344027 1:1 2:53442.595 3:411274 
0.007854658347235888 1:1 2:113344.41 3:410816 
0.06579538941118732 1:1 2:32162.026 3:411421 
0.003188546789442386 1:1 2:233234.34 3:410948 
0.04186946556329123 1:1 2:233234.34 3:411265 
0.043164777251439 1:0 2:541088.07 3:410808 
0.01856852570692696 1:0 2:541088.07 3:411277 
0.001503591014996516 1:1 2:233234.34 3:411294 
0.001403103028556986 1:0 2:210306.16 3:410871 
0.04041448712293029 1:0 2:541088.07 3:410781 
0.04412485443370515 1:1 2:233234.34 3:411312 
0.03898971727165178 1:1 2:110725.23 3:411231 
0.03782264409809655 1:0 2:210306.16 3:410929 
0.001711940240588549 1:1 2:233234.34 3:410952 
0.06128534796131607 1:1 2:32162.026 3:411356 
0.01623232390508921 1:1 2:110725.23 3:410960 
0.001569217034667695 1:1 2:70408.405 3:411330 
0.006330385506487917 1:0 2:224918.01 3:411258 
0.04259749786582979 1:0 2:210306.16 3:410748 
0.04283659807174833 1:1 2:53442.595 3:411402 
0.002025183860064196 1:1 2:53442.595 3:411273 
0.003033469132692508 1:0 2:210306.16 3:410965 
0.003666594937639935 1:1 2:110725.23 3:411331 
0.04010933731643983 1:1 2:53442.595 3:411264 
0.001985434795315238 1:1 2:70408.405 3:411281 
0.001918041415264742 1:1 2:70408.405 3:410773 
0.01440734583822524 1:1 2:233234.34 3:411153 
0.003264942192599619 1:1 2:110725.23 3:410877 
0.007679334915800351 1:1 2:70408.405 3:411235 
0.001287065206891479 1:1 2:110725.23 3:411025 
0.0007438942362107961 1:1 2:110725.23 3:410891 
0.008540567204066679 1:0 2:541088.07 3:411289 
0.007591125290115706 1:1 2:53442.595 3:410847 
0.00396654297417228 1:0 2:541088.07 3:410852 
0.04576284626885239 1:1 2:53442.595 3:411163 
0.06321566335544335 1:1 2:110725.23 3:411357 
0.005517347317464385 1:1 2:110725.23 3:410892 
0.002269892803111518 1:0 2:541088.07 3:410957 
0.004834399559138309 1:1 2:113344.41 3:411233 
0.00136366768483702 1:0 2:210306.16 3:410934 
0.008643572813120233 1:0 2:224918.01 3:411275 
0.03928872250359097 1:0 2:541088.07 3:411299 
0.00146770538510573 1:0 2:541088.07 3:411248 
0.0239224876149364 1:0 2:210306.16 3:411299 
0.02017254083882387 1:1 2:70408.405 3:411202 
0.04488203888624652 1:0 2:224918.01 3:410743 
0.04245290323849107 1:1 2:32162.026 3:411282 
0.01728483736490886 1:1 2:70408.405 3:411279 
0.003677351729311228 1:0 2:210306.16 3:411201 
0.03853948573544039 1:1 2:233234.34 3:410879 
0.005913055664276105 1:0 2:541088.07 3:411260 
0.04986210255272911 1:1 2:110725.23 3:411220 
0.01002698326711618 1:0 2:541088.07 3:410948 
0.04004539724046167 1:1 2:53442.595 3:411295 
0.04889120610987136 1:0 2:224918.01 3:410801 
0.04186071243905118 1:1 2:233234.34 3:411283 
0.03968371336295492 1:0 2:224918.01 3:411250 
0.01063379007898442 1:0 2:541088.07 3:411290 
0.05977093365822497 1:1 2:32162.026 3:411392 
0.02626141721715664 1:1 2:233234.34 3:411256 
0.03804146355648373 1:1 2:70408.405 3:410904 
0.03554939419015098 1:1 2:70408.405 3:410774 
0.01263789865461771 1:1 2:53442.595 3:411224 
0.003417418306550728 1:1 2:70408.405 3:411187 
0.007553215261698554 1:1 2:110725.23 3:411274 
0.001493164396481654 1:0 2:224918.01 3:410949 
0.004653889456942247 1:1 2:70408.405 3:410895 
0.03233056935620789 1:0 2:210306.16 3:410758 
0.007384222365809619 1:1 2:32162.026 3:411309 
0.0008872256489624267 1:1 2:233234.34 3:411316 
0.0017626251960211 1:1 2:53442.595 3:410983 
0.03241679200313863 1:0 2:210306.16 3:410740 
0.03745697170268347 1:1 2:32162.026 3:410774 
0.01299077894552676 1:0 2:210306.16 3:411220 
0.002656444484285357 1:0 2:224918.01 3:411167 
0.07876503587440895 1:1 2:53442.595 3:411449 
0.006058042992706423 1:0 2:224918.01 3:411231 
0.005048310510240474 1:1 2:53442.595 3:410807 
0.03687146160249478 1:1 2:110725.23 3:410789 
0.0009254572002638293 1:1 2:233234.34 3:411050 
0.001199555038357019 1:0 2:224918.01 3:410833 
0.002320998647459385 1:1 2:53442.595 3:410851 
0.0437536691268012 1:0 2:541088.07 3:410897 
0.05785077788267429 1:1 2:113344.41 3:411391 
0.03593125568913259 1:1 2:32162.026 3:411291 
0.01739420258630255 1:1 2:53442.595 3:411334 
0.02981731863138046 1:1 2:32162.026 3:411382 
0.06677947094524704 1:1 2:53442.595 3:411383 
0.01229136177832047 1:1 2:32162.026 3:411324 
0.0524176469756673 1:1 2:32162.026 3:410753 
0.004765134969659221 1:1 2:32162.026 3:410903 
0.001135631410413583 1:0 2:210306.16 3:410920 
0.02329297655508755 1:1 2:113344.41 3:411317 
0.003499509081580423 1:1 2:113344.41 3:411216 
0.001303063613122158 1:0 2:210306.16 3:411237 
0.003195679842399567 1:0 2:224918.01 3:411296 
0.001017051308288565 1:1 2:233234.34 3:411198 
0.005536329643211095 1:1 2:113344.41 3:411186 
0.05457536229061236 1:0 2:210306.16 3:411457 
0.0009253031853863475 1:1 2:110725.23 3:410842 
0.01717229167421665 1:1 2:113344.41 3:411314 
0.033385029018232 1:1 2:70408.405 3:411243 
0.004776113515460177 1:1 2:110725.23 3:410944 
0.003986506725298967 1:1 2:113344.41 3:411231 
0.05290960902778748 1:1 2:32162.026 3:411340 
0.00180986945899609 1:1 2:32162.026 3:411216 
0.03694060690004219 1:1 2:110725.23 3:411306 
0.03821785188743439 1:0 2:224918.01 3:410907 
0.00409006123298801 1:1 2:110725.23 3:410840 
0.005062758432590802 1:0 2:541088.07 3:411263 
0.03880652017599905 1:1 2:113344.41 3:411040 
0.002896065649566524 1:0 2:210306.16 3:410905 
0.001518760590644139 1:1 2:110725.23 3:410926 
0.001254658252367793 1:1 2:70408.405 3:411264 
0.0005659299891655201 1:1 2:233234.34 3:411238 
0.002389679757865878 1:1 2:233234.34 3:411002 
0.04495018317036324 1:1 2:110725.23 3:411346 
0.01694338367458914 1:1 2:53442.595 3:411239 
0.01451106002594264 1:1 2:70408.405 3:410947 
0.006548358946133107 1:0 2:224918.01 3:410950 
0.004477737975352168 1:1 2:53442.595 3:410876 
0.00528460785700461 1:0 2:210306.16 3:411260 
0.002057913080755425 1:0 2:224918.01 3:410847 
0.001055645765834575 1:0 2:224918.01 3:411217 
0.00679364077170494 1:1 2:53442.595 3:410862 
0.03525472627951273 1:1 2:53442.595 3:410948 
0.001044882658875446 1:0 2:224918.01 3:410867 
0.004188177050692708 1:0 2:210306.16 3:410902 
0.04228329551372979 1:1 2:110725.23 3:411293 
0.000822477652484533 1:0 2:224918.01 3:410934 
0.00556020651775172 1:1 2:113344.41 3:411218 
0.01848479631162209 1:1 2:70408.405 3:411356 
0.01138333695007224 1:1 2:233234.34 3:410950 
0.002122764371062835 1:0 2:541088.07 3:411012 
0.001790028159931821 1:1 2:53442.595 3:411257 
0.03567650033819116 1:1 2:32162.026 3:410865 
0.009695216403797039 1:1 2:233234.34 3:410920 
0.04499690961622697 1:1 2:32162.026 3:410984 
0.0006470849630992384 1:0 2:541088.07 3:410838 
0.0005933745323861636 1:1 2:110725.23 3:410962 
0.0007732677384212517 1:0 2:541088.07 3:411146 
0.03721078937039272 1:0 2:541088.07 3:411314 
0.002317379905151425 1:1 2:53442.595 3:410914 
0.003234690513020103 1:1 2:233234.34 3:411169 
0.003403672636058704 1:1 2:53442.595 3:410890 
0.04854184498460619 1:0 2:224918.01 3:411285 
0.04137894889616493 1:0 2:210306.16 3:411250 
0.0005632724960098062 1:1 2:110725.23 3:411174 
0.0007967173873205807 1:1 2:113344.41 3:411170 
0.001495443287295238 1:1 2:110725.23 3:411238 
0.003426830820158343 1:1 2:32162.026 3:411196 
0.002281777867203284 1:1 2:53442.595 3:411133 
0.04351486932593968 1:1 2:32162.026 3:411242 
0.001392868922002175 1:0 2:541088.07 3:410904 
0.01844442273938514 1:0 2:224918.01 3:410762 
0.04426468998073942 1:1 2:32162.026 3:411252 
0.0009129052649635213 1:1 2:113344.41 3:411258 
0.01954539698889187 1:1 2:32162.026 3:410872 
0.004353380527076539 1:1 2:32162.026 3:411195 
0.001646942569041739 1:0 2:541088.07 3:410830 
0.01021832322180683 1:0 2:210306.16 3:410836 
0.001110973935977088 1:0 2:210306.16 3:410833 
0.02298944984001134 1:1 2:233234.34 3:410856 
0.001563679522831032 1:1 2:32162.026 3:411198 
0.01255047845543281 1:1 2:70408.405 3:411034 
0.02341451793500956 1:1 2:53442.595 3:411255 
0.005364638306541728 1:1 2:233234.34 3:410886 
0.008705849093664288 1:1 2:113344.41 3:411234 
0.004007075741049645 1:1 2:233234.34 3:411025 
0.002597116430986226 1:1 2:53442.595 3:411210 
0.001415555606520022 1:0 2:224918.01 3:411163 
0.05822607376524139 1:1 2:53442.595 3:410792 
0.04901072159010823 1:1 2:53442.595 3:411408 
0.002767867397813383 1:1 2:53442.595 3:410954 
0.001490036034320658 1:0 2:224918.01 3:411207 
0.003553355152239559 1:1 2:113344.41 3:411217 
0.03579986820738518 1:0 2:541088.07 3:411208 
0.002885066611535345 1:0 2:224918.01 3:411052 
0.00606402534400784 1:1 2:53442.595 3:411029 
0.006388846065623026 1:0 2:541088.07 3:410905 
0.004929375022800211 1:1 2:32162.026 3:411214 
0.001803246226364577 1:1 2:70408.405 3:411080 
0.00125193254593171 1:1 2:113344.41 3:410861 
0.03366045495544702 1:0 2:541088.07 3:411284 
0.04434015027450308 1:1 2:233234.34 3:411226 
0.03844245063042687 1:0 2:210306.16 3:410895 
0.005157283955433961 1:1 2:233234.34 3:410905 
0.003460882857770804 1:0 2:210306.16 3:411279 
0.06914440217536755 1:1 2:70408.405 3:411121 
0.007386682119791849 1:1 2:70408.405 3:410826 
0.04382050235278503 1:0 2:224918.01 3:410780 
0.001960107534917842 1:1 2:70408.405 3:411215 
0.01948837032203151 1:1 2:110725.23 3:410974 
0.006317612018067958 1:1 2:70408.405 3:411200 
0.001146272078583879 1:1 2:32162.026 3:411233 
0.001372961457629336 1:0 2:210306.16 3:411145 
0.003930764181659968 1:0 2:541088.07 3:411042 
0.002189271167394029 1:1 2:113344.41 3:411189 
0.001760572011123365 1:1 2:110725.23 3:411235 
0.0008431995129160401 1:0 2:210306.16 3:410949 
0.03817368685418459 1:1 2:110725.23 3:411334 
0.02201979361011905 1:1 2:110725.23 3:410781 
0.0009224785952885659 1:1 2:70408.405 3:411294 
0.008419052846874775 1:1 2:233234.34 3:410931 
0.05982571018548954 1:1 2:53442.595 3:410739 
0.04127330115249398 1:1 2:53442.595 3:410963 
0.003287678593835981 1:0 2:210306.16 3:411174 
0.007983242003976154 1:0 2:224918.01 3:411179 
0.03866288658947726 1:0 2:210306.16 3:410732 
0.03571883783986828 1:1 2:113344.41 3:410981 
0.002464271338736804 1:1 2:110725.23 3:411203 
0.03768261647169157 1:1 2:70408.405 3:410878 
0.02295983392831454 1:1 2:32162.026 3:411153 
0.05001274628029623 1:1 2:110725.23 3:411244 
0.008827153092033215 1:0 2:224918.01 3:411257 
0.01191373053363987 1:1 2:32162.026 3:410935 
0.000880033440750945 1:1 2:233234.34 3:411147 
0.009620711729660293 1:1 2:70408.405 3:411252 
0.007202557859455866 1:1 2:113344.41 3:411284 
0.04436643238777711 1:1 2:53442.595 3:410896 
0.03068747415957936 1:1 2:110725.23 3:410893 
0.04386788182104118 1:0 2:541088.07 3:410911 
0.00280451462327877 1:1 2:113344.41 3:411271 
0.008248051545506729 1:1 2:233234.34 3:411037 
0.003680894301949995 1:1 2:110725.23 3:411139 
0.06890203633706249 1:0 2:541088.07 3:411121 
0.0289173474866804 1:1 2:53442.595 3:411287 
0.04185103016120983 1:1 2:32162.026 3:410783 
0.009170510166811197 1:0 2:541088.07 3:411262 
0.03525300728980577 1:0 2:541088.07 3:411356 
0.002006361156247707 1:1 2:32162.026 3:411027 
0.008192050759947958 1:0 2:224918.01 3:411166 
0.003464326146860992 1:1 2:233234.34 3:411170 
0.0331784317864527 1:1 2:53442.595 3:410977 
0.001732800061274521 1:0 2:210306.16 3:411146 
0.002037222567037417 1:1 2:32162.026 3:411069 
0.002497273341009285 1:1 2:32162.026 3:410989 
0.01645875663043445 1:1 2:113344.41 3:411328 
0.06910965506714305 1:1 2:53442.595 3:411121 
0.009690858911873155 1:0 2:224918.01 3:411135 
0.00533134663762259 1:1 2:113344.41 3:410880 
0.001452453055380749 1:0 2:224918.01 3:411148 
0.04218586827236007 1:0 2:541088.07 3:411020 
0.01040654264368544 1:1 2:70408.405 3:410860 
0.0008875231691722013 1:1 2:70408.405 3:411358 
0.006686718876858837 1:1 2:53442.595 3:410984 
0.005901648663471475 1:0 2:210306.16 3:411132 
0.00123960123972121 1:1 2:233234.34 3:410934 
0.00271378987269718 1:1 2:70408.405 3:411036 
0.001411081077697723 1:1 2:32162.026 3:411005 
0.002163380863299816 1:1 2:32162.026 3:411040 
0.008332213960038257 1:1 2:53442.595 3:411172 
0.006190535250766571 1:0 2:541088.07 3:411011 
0.007583532487730913 1:0 2:210306.16 3:411159 
0.01298694626947454 1:0 2:210306.16 3:411261 
0.008435259573100493 1:1 2:53442.595 3:411303 
0.006634131725342268 1:0 2:210306.16 3:410982 
0.0113529362453358 1:1 2:70408.405 3:411234 
0.01049094620084115 1:0 2:541088.07 3:411209 
0.00583858781568293 1:1 2:233234.34 3:410966 
0.05107608392114997 1:1 2:32162.026 3:410739 
0.001770592456599962 1:0 2:224918.01 3:411053 
0.006873907354343817 1:1 2:32162.026 3:411174 
0.005834094417928827 1:0 2:210306.16 3:411221 
0.0009163958858973975 1:1 2:233234.34 3:410989 
0.03133298531656682 1:0 2:210306.16 3:410958 
0.03801635704684465 1:1 2:110725.23 3:411162 
0.005012330648995566 1:1 2:110725.23 3:411039 
0.001319546191905934 1:0 2:224918.01 3:411164 
0.03069631447519022 1:1 2:70408.405 3:410912 
0.0009377967161420085 1:1 2:70408.405 3:410930 
0.07881400205740263 1:0 2:210306.16 3:410652 
0.0108127262096696 1:1 2:70408.405 3:411067 
0.002005569765865411 1:1 2:32162.026 3:411026 
0.0009416482725534414 1:0 2:210306.16 3:410998 
0.003680052743631889 1:1 2:53442.595 3:410889 
0.0009002658238101008 1:1 2:113344.41 3:411152 
0.001746767082337276 1:0 2:541088.07 3:411029 
0.002081747651213633 1:1 2:113344.41 3:411246 
0.002433467094941943 1:0 2:210306.16 3:410922 
0.03691486387563878 1:0 2:210306.16 3:410991 
0.02544858671463537 1:1 2:70408.405 3:411361 
0.04454305350769489 1:1 2:113344.41 3:411251 
0.007757393710698557 1:1 2:70408.405 3:411201 
0.006553096452350268 1:1 2:53442.595 3:411240 
0.04122162378336858 1:1 2:70408.405 3:411161 
0.02342188609763844 1:0 2:541088.07 3:411168 
0.04641475859063881 1:0 2:210306.16 3:411270 
0.002366655049202616 1:1 2:70408.405 3:410879 
0.005852614184642559 1:1 2:32162.026 3:410965 
0.008064934865536711 1:0 2:541088.07 3:410865 
0.0007794364897649106 1:1 2:53442.595 3:411289 
0.00884102570556948 1:0 2:541088.07 3:411148 
0.01085385648009491 1:1 2:233234.34 3:411135 
0.02698970328291472 1:1 2:113344.41 3:411068 
0.001046414750188978 1:0 2:541088.07 3:411294 
0.01094671524849228 1:0 2:541088.07 3:411149 
0.04839257262249815 1:1 2:110725.23 3:410767 
0.00356983472663091 1:1 2:113344.41 3:410878 
0.006118884925336686 1:1 2:32162.026 3:410986 
0.006003200067097851 1:0 2:224918.01 3:411133 
0.006557271288229199 1:0 2:541088.07 3:411000 
0.004567658403329573 1:1 2:53442.595 3:411059 
0.01369986201500466 1:1 2:233234.34 3:410869 
0.04401172652049039 1:1 2:32162.026 3:411272 
0.01008295202448641 1:1 2:32162.026 3:410858 
0.001392684069330845 1:0 2:541088.07 3:411183 
0.03797010349138399 1:1 2:53442.595 3:410816 
0.01457247563504426 1:1 2:70408.405 3:411218 
0.04416716726755 1:1 2:113344.41 3:411159 
0.003604822489524648 1:0 2:210306.16 3:410968 
0.001039428239805674 1:1 2:113344.41 3:410942 
0.02347318891428063 1:1 2:70408.405 3:410896 
0.001271777145817214 1:0 2:210306.16 3:411239 
0.002297629351772312 1:1 2:113344.41 3:410988 
0.001223998597992292 1:1 2:32162.026 3:411197 
0.03782420140209979 1:1 2:70408.405 3:411298 
0.004011764314941425 1:1 2:110725.23 3:411006 
0.007280052083723143 1:0 2:224918.01 3:411192 
0.02553400006776869 1:1 2:70408.405 3:411054 
0.0007314423831457639 1:0 2:541088.07 3:411229 
0.001672547014997521 1:0 2:224918.01 3:410918 
0.04473680712564208 1:1 2:233234.34 3:411206 
0.0007311569404098439 1:0 2:224918.01 3:411151 
0.009147906360054879 1:1 2:70408.405 3:411322 
0.05145156755274745 1:1 2:32162.026 3:410997 
0.0007746923315492607 1:1 2:70408.405 3:410944 
0.03324134331557937 1:1 2:233234.34 3:410956 
0.01793755716222009 1:1 2:70408.405 3:410931 
0.01117209922233752 1:0 2:224918.01 3:410897 
0.003091358895839158 1:1 2:32162.026 3:411042 
0.00099810269900482 1:1 2:70408.405 3:410986 
0.003845117262201114 1:1 2:70408.405 3:410842 
0.00821413803593616 1:1 2:32162.026 3:411007 
0.04466965374610765 1:1 2:70408.405 3:411287 
0.04067978791360276 1:0 2:210306.16 3:411181 
0.01163351113126874 1:0 2:210306.16 3:410919 
0.002847754496600428 1:0 2:210306.16 3:410851 
0.002219705825273324 1:0 2:210306.16 3:411202 
0.002299895257939996 1:1 2:53442.595 3:411016 
0.007005603430150748 1:1 2:233234.34 3:410964 
0.000702362149610232 1:0 2:541088.07 3:411210 
0.004400908534583803 1:1 2:113344.41 3:410863 
0.003181487116609193 1:1 2:53442.595 3:410850 
0.03623694490333969 1:1 2:53442.595 3:410992 
0.0404886492559861 1:0 2:224918.01 3:411051 
0.0008761398544124277 1:1 2:113344.41 3:411148 
0.01851253810050328 1:1 2:53442.595 3:411014 
0.04033583646024112 1:1 2:70408.405 3:411324 
0.005027372780532831 1:0 2:541088.07 3:410828 
0.04451418601681235 1:1 2:113344.41 3:411346 
0.003342349402784059 1:1 2:113344.41 3:411201 
0.003583082405295545 1:0 2:210306.16 3:411189 
0.006657223524471528 1:1 2:32162.026 3:411028 
0.04911744354597332 1:0 2:224918.01 3:410980 
0.009527303024234443 1:0 2:210306.16 3:410935 
0.0009141067272038506 1:1 2:53442.595 3:411146 
0.04061660757932432 1:1 2:70408.405 3:411226 
0.01444530367301852 1:1 2:113344.41 3:410910 
0.007648612639362346 1:1 2:70408.405 3:411013 
0.002371167388759151 1:0 2:224918.01 3:411193 
0.01062333435289029 1:0 2:210306.16 3:410997 
0.01110432803358572 1:0 2:541088.07 3:410800 
0.001407787593145125 1:1 2:53442.595 3:411042 
0.002439167932473566 1:1 2:70408.405 3:411168 
0.005549071652643764 1:0 2:541088.07 3:410803 
0.00453157062715151 1:0 2:224918.01 3:411218 
0.001211915389290043 1:1 2:32162.026 3:410992 
0.002015590658226371 1:1 2:32162.026 3:410952 
0.002900684877732019 1:1 2:70408.405 3:411154 
0.0007074067606168966 1:0 2:541088.07 3:410854 
0.005911216413437632 1:0 2:541088.07 3:410866 
0.03678833768541579 1:1 2:32162.026 3:411192 
0.01047428630770419 1:1 2:53442.595 3:410971 
0.0008789529166013455 1:0 2:541088.07 3:410826 
0.003472804938398318 1:1 2:110725.23 3:411205 
0.0009558000302638859 1:1 2:233234.34 3:411148 
0.0008851314400376009 1:1 2:110725.23 3:410928 
0.002064900561023597 1:1 2:233234.34 3:411273 
0.0378702329657022 1:1 2:110725.23 3:411257 
0.005986272409612631 1:1 2:70408.405 3:410945 
0.0185896515662209 1:1 2:113344.41 3:410848 
0.0008330948344471401 1:1 2:233234.34 3:411068 
0.003992294947587316 1:1 2:233234.34 3:410988 
0.003450571688300544 1:1 2:110725.23 3:410738 
0.0005220924580873268 1:1 2:32162.026 3:411232 
0.04965311640455201 1:1 2:53442.595 3:410908 
0.01202361052479015 1:1 2:53442.595 3:410985 
0.001983131771912235 1:1 2:32162.026 3:411215 
0.03514675710040772 1:1 2:32162.026 3:410792 
0.004293546288539033 1:1 2:110725.23 3:411023 
0.004547161395670556 1:1 2:233234.34 3:410871 
0.03854558615459879 1:1 2:233234.34 3:410941 
0.003325923152298732 1:0 2:541088.07 3:410998 
0.000936516893539685 1:0 2:541088.07 3:410842 
0.03428288300571154 1:1 2:113344.41 3:411265 
0.02523833285211602 1:1 2:70408.405 3:410861 
0.009225925923188967 1:1 2:53442.595 3:411225 
0.0009553583725869894 1:1 2:233234.34 3:410823 
0.007260962740797822 1:0 2:224918.01 3:411255 
0.004287239064518729 1:0 2:224918.01 3:410811 
0.005893325198321187 1:1 2:113344.41 3:411058 
0.00328460638183814 1:1 2:53442.595 3:410863 
0.00187534343354298 1:1 2:70408.405 3:410825 
0.01116691356833205 1:0 2:224918.01 3:411070 
0.0398928858584014 1:0 2:224918.01 3:411352 
0.0007165348490036777 1:0 2:541088.07 3:410984 
0.0136936472885277 1:0 2:224918.01 3:411068 
0.001798737666008206 1:0 2:541088.07 3:410845 
0.006770772589156834 1:1 2:53442.595 3:410928 
0.001568666720580776 1:1 2:70408.405 3:410929 
0.02449002686238237 1:1 2:113344.41 3:410925 
0.0005572384435743247 1:1 2:113344.41 3:411169 
0.03920444224938169 1:1 2:70408.405 3:410887 
0.01025521609012656 1:0 2:541088.07 3:411187 
0.002674752870868897 1:1 2:233234.34 3:411023 
0.003749330024650483 1:1 2:110725.23 3:411022 
0.0058946358757063 1:0 2:541088.07 3:410932 
0.0009452546514585117 1:1 2:70408.405 3:411133 
0.02808114556917678 1:1 2:233234.34 3:411196 
0.03798283177065679 1:1 2:113344.41 3:410871 
0.003843671287069647 1:1 2:53442.595 3:410941 
0.02821062290680277 1:0 2:210306.16 3:410983 
0.001791819412476234 1:1 2:53442.595 3:411192 
0.003799014319992235 1:0 2:224918.01 3:410933 
0.0153314841244555 1:0 2:541088.07 3:410879 
0.002618385067502521 1:1 2:113344.41 3:411204 
0.03792789229874043 1:1 2:233234.34 3:411142 
0.002435800082061311 1:1 2:110725.23 3:411054 
0.0007517716820783713 1:1 2:113344.41 3:411020 
0.01659769514899847 1:1 2:32162.026 3:411349 
0.001294567865540913 1:0 2:210306.16 3:411144 
0.0418038763935297 1:1 2:53442.595 3:410842 
0.01987361615013932 1:0 2:541088.07 3:410759 
0.04981357985938706 1:1 2:32162.026 3:410972 
0.004701615287364276 1:0 2:541088.07 3:411069 
0.004315745749800984 1:1 2:113344.41 3:411259 
0.00101675062724389 1:1 2:53442.595 3:411001 
0.04701417405717385 1:1 2:233234.34 3:411323 
0.001174330083453598 1:1 2:70408.405 3:411186 
0.007241134164306613 1:1 2:53442.595 3:411271 
0.01075500967195524 1:1 2:110725.23 3:411186 
0.05018991047134644 1:1 2:113344.41 3:411052 
0.0009515683315053994 1:1 2:70408.405 3:411232 
0.006379363397649464 1:0 2:210306.16 3:411067 
0.03412519512993825 1:1 2:32162.026 3:411034 
0.06844132586047935 1:0 2:541088.07 3:411080 
0.02669354891805161 1:1 2:110725.23 3:410945 
0.02611019725620948 1:1 2:113344.41 3:411004 
0.03846808800268692 1:0 2:224918.01 3:411031 
0.04077318617197405 1:1 2:70408.405 3:411272 
0.000609763637507893 1:1 2:233234.34 3:411215 
0.04682357230251961 1:0 2:224918.01 3:410991 
0.009030093854916283 1:0 2:541088.07 3:410959 
0.001012424529430802 1:0 2:541088.07 3:410851 
0.01297798321188041 1:1 2:32162.026 3:410814 
0.04336497069142444 1:1 2:110725.23 3:411172 
0.004665521028441446 1:0 2:210306.16 3:410966 
0.02175526992138675 1:1 2:113344.41 3:411339 
0.03382762039384953 1:1 2:113344.41 3:411064 
0.008801126267154954 1:1 2:233234.34 3:411026 
0.02168756877515347 1:0 2:541088.07 3:411133 
0.03239786409858159 1:0 2:541088.07 3:411139 
0.00124629430271021 1:1 2:113344.41 3:411121 
0.03796910127617458 1:0 2:541088.07 3:411340 
0.001011187774317047 1:1 2:70408.405 3:410985 
0.0216617285686941 1:1 2:110725.23 3:411038 
0.01012298080803837 1:1 2:113344.41 3:411262 
0.002989814569318373 1:1 2:110725.23 3:411040 
0.00167198013110692 1:1 2:32162.026 3:411136 
0.003426037333117295 1:1 2:53442.595 3:411070 
0.007148260333518765 1:0 2:224918.01 3:410971 
0.01631188331671574 1:1 2:32162.026 3:410799 
0.005526032602933123 1:1 2:233234.34 3:411133 
0.002591789133639983 1:1 2:70408.405 3:411015 
0.007780123717367603 1:1 2:32162.026 3:410860 
0.04522287973620015 1:1 2:32162.026 3:411223 
0.01004088668159278 1:1 2:233234.34 3:411004 
0.000770447703951592 1:0 2:210306.16 3:411216 
0.004208484906572235 1:1 2:53442.595 3:410955 
0.06965799641239177 1:1 2:53442.595 3:411080 
0.004010488946983578 1:1 2:53442.595 3:410901 
0.001754438477378891 1:1 2:110725.23 3:410826 
0.002274339352071072 1:1 2:113344.41 3:410924 
0.004404281320752566 1:1 2:53442.595 3:411152 
0.03658610999258997 1:0 2:210306.16 3:411195 
0.0395059356876229 1:0 2:210306.16 3:410943 
0.02678552296809544 1:1 2:113344.41 3:410956 
0.0006261615978723073 1:0 2:224918.01 3:410884 
0.001318752143286289 1:0 2:224918.01 3:410969 
0.0006399578177995553 1:1 2:113344.41 3:410927 
0.06842135646752814 1:0 2:210306.16 3:411080 
0.001721635741342908 1:1 2:113344.41 3:411230 
0.06916703797971901 1:1 2:233234.34 3:411121 
0.001379229486113313 1:1 2:113344.41 3:411059 
0.002173212266804753 1:1 2:70408.405 3:411315 
0.03543392340520812 1:0 2:210306.16 3:410787 
0.0008198524144896191 1:0 2:224918.01 3:410916 
0.0008418858405470538 1:1 2:32162.026 3:411056 
0.01321951858990958 1:1 2:113344.41 3:411203 
0.02056082316237383 1:0 2:210306.16 3:411240 
0.03180298928966638 1:1 2:70408.405 3:411033 
0.03958536014494109 1:0 2:210306.16 3:410826 
0.00153966180602965 1:1 2:53442.595 3:411151 
0.04088555355728828 1:1 2:233234.34 3:411031 
0.003709723644084601 1:0 2:210306.16 3:411066 
0.001985865426686315 1:1 2:53442.595 3:411131 
0.04255727418537345 1:1 2:32162.026 3:410850 
0.005449687042112815 1:1 2:110725.23 3:411251 
0.02996218842713972 1:1 2:233234.34 3:410801 
0.03581699054525568 1:1 2:233234.34 3:411057 
0.009339101590564879 1:1 2:233234.34 3:410904 
0.01729608015703345 1:1 2:110725.23 3:411276 
0.04117409553969131 1:1 2:110725.23 3:410744 
0.04066525920779615 1:0 2:541088.07 3:410978 
0.01090750425639 1:1 2:70408.405 3:411265 
0.04651121146509225 1:1 2:233234.34 3:410749 
0.0007185222811257816 1:1 2:113344.41 3:411046 
0.003045432545554692 1:1 2:233234.34 3:411235 
0.007023088190401276 1:0 2:541088.07 3:410972 
0.01176224396946437 1:1 2:233234.34 3:410919 
0.001495169795101166 1:1 2:70408.405 3:411014 
0.01663820819912893 1:0 2:210306.16 3:410964 
0.001044320927853053 1:1 2:70408.405 3:410788 
0.001599611518000712 1:1 2:32162.026 3:410953 
0.01398237660271575 1:1 2:233234.34 3:410840 
0.01479402287290692 1:1 2:233234.34 3:410826 
0.004357483280018354 1:1 2:113344.41 3:411134 
0.004934589870927058 1:1 2:32162.026 3:410950 
0.00659904019109918 1:1 2:53442.595 3:411043 
0.002343959758323665 1:1 2:113344.41 3:411132 
0.0006748531626813966 1:0 2:224918.01 3:411165 
0.001434839458153608 1:0 2:210306.16 3:411050 
0.003234439649995972 1:1 2:53442.595 3:410873 
0.0008598062182379435 1:1 2:233234.34 3:411021 
0.01113948599452924 1:0 2:210306.16 3:411188 
0.0008678880536309882 1:1 2:233234.34 3:410901 
0.009244688073565693 1:0 2:210306.16 3:410950 
0.04029605018672747 1:1 2:110725.23 3:410984 
0.003401746824222096 1:0 2:210306.16 3:410999 
0.0009794316877974418 1:1 2:70408.405 3:411183 
0.0009291443487431893 1:1 2:233234.34 3:411049 
0.005559565421949263 1:1 2:70408.405 3:410969 
0.002692908851081465 1:1 2:32162.026 3:410991 
0.004134182817165919 1:1 2:53442.595 3:410916 
0.04299452532887037 1:1 2:32162.026 3:410959 
0.0007927541132186389 1:1 2:233234.34 3:410963 
0.0006137430889837994 1:1 2:32162.026 3:410890 
0.008741000508637794 1:0 2:224918.01 3:411134 
0.01187295080191481 1:1 2:113344.41 3:410864 
0.0695033701043672 1:1 2:233234.34 3:411080 
0.0009288889594941396 1:0 2:224918.01 3:410931 
0.03829089825576431 1:1 2:70408.405 3:411144 
0.01041573177164462 1:1 2:32162.026 3:411213 
0.01116465899933768 1:1 2:113344.41 3:410834 
0.001130863678588926 1:1 2:233234.34 3:410917 
0.001065098821753166 1:1 2:233234.34 3:410965 
0.005055000847830837 1:1 2:53442.595 3:410969 
0.009954514748641272 1:1 2:110725.23 3:411159 
0.004250555041736721 1:1 2:113344.41 3:411022 
0.001358495631909457 1:1 2:113344.41 3:411043 
0.009958603236419825 1:1 2:113344.41 3:410975 
0.001452235277555135 1:1 2:233234.34 3:410987 
0.009423276210145767 1:0 2:210306.16 3:410886 
0.004500986709422748 1:0 2:210306.16 3:411222 
0.06979287248353322 1:1 2:113344.41 3:411080 
0.004007330459169426 1:1 2:110725.23 3:410911 
0.04435143962009654 1:0 2:541088.07 3:410821 
0.002135952117250686 1:0 2:224918.01 3:411080 
0.004232779353159813 1:1 2:113344.41 3:411021 
0.004448783895418091 1:0 2:541088.07 3:410958 
0.004807334235970975 1:1 2:110725.23 3:411286 
0.003371487878898398 1:0 2:210306.16 3:411190 
0.01653872397737958 1:1 2:113344.41 3:410862 
0.01291308791515589 1:0 2:224918.01 3:410849 
0.004192209996895576 1:0 2:224918.01 3:411333 
0.002782129979143334 1:1 2:110725.23 3:410977 
0.0005957127744657814 1:0 2:224918.01 3:410917 
0.03948638616207396 1:1 2:233234.34 3:410847 
0.007540748047873713 1:1 2:53442.595 3:410888 
0.0011631045963275 1:1 2:233234.34 3:411006 
0.0151027522587762 1:1 2:70408.405 3:411184 
0.0006579017678419313 1:1 2:110725.23 3:410930 
0.04074365590553623 1:1 2:53442.595 3:411182 
0.008310957122773681 1:1 2:70408.405 3:411132 
0.001210940104948611 1:1 2:32162.026 3:410979 
0.00164197245603899 1:0 2:541088.07 3:411163 
0.03461119708515818 1:0 2:210306.16 3:411020 
0.03729708172456402 1:0 2:210306.16 3:410852 
0.03453532617978858 1:0 2:541088.07 3:411068 
0.001880856005751088 1:1 2:32162.026 3:411137 
0.0006772167185585139 1:0 2:541088.07 3:411027 
0.02703189165864356 1:1 2:233234.34 3:411344 
0.003466775775816588 1:0 2:224918.01 3:411219 
0.0005869835229766543 1:1 2:53442.595 3:410861 
0.002324096429284757 1:1 2:53442.595 3:410999 
0.003109782612549579 1:1 2:32162.026 3:411154 
0.03696015537061725 1:1 2:70408.405 3:411177 
0.001397384403594177 1:0 2:541088.07 3:411013 
0.003341952835915446 1:0 2:210306.16 3:410937 
0.01065970442411066 1:0 2:541088.07 3:410889 
0.04231970301199992 1:1 2:70408.405 3:410817 
0.00269443451670826 1:1 2:110725.23 3:411143 
0.03880064495821958 1:1 2:110725.23 3:411046 
0.005014362509296199 1:1 2:53442.595 3:411069 
0.008167821765686754 1:1 2:53442.595 3:411209 
0.009251848502778779 1:0 2:224918.01 3:411245 
0.009477282652751867 1:1 2:70408.405 3:411069 
0.006742899725834966 1:0 2:224918.01 3:411346 
0.002473160693999617 1:1 2:32162.026 3:411138 
0.007159407991932399 1:0 2:541088.07 3:410999 
0.03473866334316453 1:1 2:233234.34 3:410833 
0.009935141975858649 1:1 2:233234.34 3:411132 
0.00141045390309463 1:0 2:210306.16 3:411052 
0.04105125897231966 1:1 2:53442.595 3:411022 
0.01704897633480314 1:0 2:210306.16 3:411026 
0.01154449229478599 1:1 2:70408.405 3:411053 
0.03287854985732894 1:0 2:541088.07 3:411035 
0.002615294089987545 1:1 2:113344.41 3:410973 
0.005001337219193571 1:0 2:224918.01 3:411132 
0.01378441406195735 1:1 2:113344.41 3:410894 
0.008233470717678734 1:1 2:53442.595 3:411058 
0.005913163895135824 1:1 2:110725.23 3:411131 
0.02710029757832547 1:1 2:233234.34 3:410734 
0.01448377000211657 1:0 2:210306.16 3:411013 
0.01138886205110123 1:0 2:224918.01 3:410970 
0.02078293961292494 1:0 2:224918.01 3:411011 
0.002420297315607493 1:1 2:70408.405 3:411051 
0.008307624955577554 1:1 2:113344.41 3:411133 
0.007641896149734214 1:1 2:53442.595 3:410981 
0.001832127950516238 1:0 2:541088.07 3:410986 
0.004166369761488618 1:1 2:110725.23 3:411188 
0.04408812210252247 1:1 2:233234.34 3:411302 
0.03799881371622734 1:1 2:113344.41 3:411239 
0.01736027503333705 1:0 2:210306.16 3:410903 
0.005392032609869445 1:1 2:32162.026 3:410873 
0.002128127646899326 1:0 2:224918.01 3:411150 
0.005780972164031272 1:0 2:541088.07 3:410827 
0.0007792669016214934 1:0 2:224918.01 3:411012 
0.002711161439454914 1:0 2:224918.01 3:411069 
0.01207191832718354 1:0 2:541088.07 3:411055 
0.03906897541600017 1:0 2:210306.16 3:410843 
0.01143061055598413 1:1 2:233234.34 3:411352 
0.005059542436366898 1:1 2:32162.026 3:410960 
0.003562164794847035 1:0 2:541088.07 3:411056 
0.02808997195957623 1:1 2:70408.405 3:411152 
0.001850581019762868 1:1 2:32162.026 3:410920 
0.04112311854335448 1:1 2:32162.026 3:410912 
0.01673452851654196 1:0 2:210306.16 3:410952 
0.003844820392395586 1:1 2:70408.405 3:410989 
0.04803241378790186 1:1 2:70408.405 3:410980 
0.00144432454069429 1:1 2:113344.41 3:410908 
0.01239058662626997 1:1 2:70408.405 3:411012 
0.008693462541976133 1:1 2:53442.595 3:411057 
0.001877294372917388 1:0 2:210306.16 3:410981 
0.03679828344780949 1:0 2:541088.07 3:410926 
0.007614668353245369 1:0 2:541088.07 3:411041 
0.03473524247855955 1:1 2:53442.595 3:411144 
0.04202404970160343 1:0 2:541088.07 3:411327 
0.01212769834992664 1:1 2:70408.405 3:411134 
0.01453978465192018 1:1 2:110725.23 3:411007 
0.007196013231258274 1:0 2:224918.01 3:411205 
0.02323131475143146 1:1 2:70408.405 3:411011 
0.036722145131839 1:1 2:113344.41 3:411012 
0.02629505905477994 1:0 2:210306.16 3:410869 
0.04301968952276369 1:0 2:541088.07 3:411157 
0.002828224598572494 1:0 2:210306.16 3:411014 
0.001282808790123926 1:0 2:224918.01 3:410994 
0.003786470330865105 1:1 2:53442.595 3:410940 
0.003638121621005993 1:0 2:541088.07 3:411040 
0.06873877358568348 1:0 2:224918.01 3:411121 
0.01326293237151393 1:0 2:541088.07 3:410985 
0.02001777994687053 1:1 2:32162.026 3:410921 
0.00261523026410463 1:1 2:110725.23 3:411008 
0.009490029029290591 1:0 2:541088.07 3:411028 
0.01165831919337024 1:1 2:53442.595 3:411044 
0.06844295474194428 1:1 2:32162.026 3:411080 
0.0054127405980388 1:0 2:210306.16 3:411187 
0.0008399436503048072 1:1 2:32162.026 3:410937 
0.03825733554545541 1:0 2:210306.16 3:411376 
0.0009845796629581807 1:1 2:70408.405 3:411055 
0.01735277103873971 1:1 2:110725.23 3:411313 
0.01644001399913304 1:1 2:113344.41 3:410972 
0.006776369972054614 1:0 2:541088.07 3:411014 
0.0009873628291382386 1:1 2:233234.34 3:410947 
0.001108949596578737 1:1 2:233234.34 3:411054 
0.001574355855341038 1:0 2:541088.07 3:411067 
0.03646580393834899 1:1 2:32162.026 3:410928 
0.008414983773411107 1:1 2:53442.595 3:411028 
0.0009125310393777938 1:0 2:224918.01 3:411206 
0.005899054060806941 1:1 2:53442.595 3:410836 
0.004211255588564649 1:1 2:233234.34 3:411022 
0.000893501864425196 1:1 2:110725.23 3:411171 
0.01071930226420542 1:1 2:53442.595 3:411000 
0.0007074578954594444 1:1 2:113344.41 3:411311 
0.0436095666535254 1:1 2:233234.34 3:411216 
0.01026070395722051 1:0 2:224918.01 3:411067 
0.002197686941959802 1:0 2:224918.01 3:411180 
0.008697259267144281 1:1 2:110725.23 3:410961 
0.00999926956974718 1:1 2:53442.595 3:411208 
0.04078225198828358 1:0 2:224918.01 3:410924 
0.03333365734996807 1:0 2:224918.01 3:411141 
0.01279784561633157 1:1 2:110725.23 3:411070 
0.002007821646657248 1:1 2:32162.026 3:410978 
0.04496854329975961 1:0 2:541088.07 3:410938 
0.007192603379252848 1:0 2:210306.16 3:411160 
0.07415998078211802 1:1 2:110725.23 3:411395 
0.001373021363309796 1:0 2:224918.01 3:411178 
0.0116777497116433 1:1 2:70408.405 3:411068 
0.001376841175816488 1:1 2:233234.34 3:411036 
0.001374412491407666 1:1 2:113344.41 3:411019 
0.001067768608660728 1:0 2:210306.16 3:411173 
0.001408073662997222 1:1 2:32162.026 3:410934 
0.001918748946181738 1:0 2:224918.01 3:411220 
0.005137725035655464 1:1 2:70408.405 3:410928 
0.04062547017656187 1:1 2:110725.23 3:411209 
0.001811649532930172 1:1 2:233234.34 3:411024 
0.01383634163323703 1:1 2:110725.23 3:410994 
0.004894567369135384 1:0 2:224918.01 3:411232 
0.00674874439697376 1:0 2:210306.16 3:411030 
0.04389508579367575 1:0 2:541088.07 3:411177 
0.00332053023275308 1:1 2:233234.34 3:411051 
0.004771148896000202 1:1 2:32162.026 3:411041 
0.003428319653686075 1:1 2:110725.23 3:411158 
0.005892915181021703 1:0 2:224918.01 3:411032 
0.001128906128008781 1:1 2:110725.23 3:411173 
0.07877968704525184 1:0 2:224918.01 3:411437 
0.01220788816961287 1:1 2:70408.405 3:411317 
0.007355215994513731 1:0 2:541088.07 3:410945 
0.01100492364228888 1:1 2:110725.23 3:410857 
0.04217206826666479 1:1 2:32162.026 3:411183 
0.01114234921633661 1:1 2:53442.595 3:410956 
0.03524112041275882 1:1 2:110725.23 3:411062 
0.0031974938359346 1:1 2:32162.026 3:411054 
0.002111294923234343 1:1 2:110725.23 3:411289 
0.005862661857708151 1:1 2:110725.23 3:410927 
0.008698910756366373 1:1 2:110725.23 3:410841 
0.04116889434383138 1:1 2:32162.026 3:411133 
0.004812258924573973 1:0 2:210306.16 3:410951 
0.0008742773052822159 1:1 2:113344.41 3:411034 
0.002664700953823186 1:1 2:113344.41 3:411041 
0.06669257016907315 1:1 2:113344.41 3:411121 
0.001106243369273875 1:1 2:32162.026 3:411068 
0.001104281222211376 1:0 2:224918.01 3:410900 
0.06761463322158096 1:1 2:32162.026 3:410726 
0.0009723515392845309 1:1 2:32162.026 3:410906 
0.03729567551114948 1:1 2:53442.595 3:411153 
0.03666659279346326 1:1 2:110725.23 3:410901 
0.009996476395101005 1:1 2:32162.026 3:410936 
0.03821437950155914 1:1 2:110725.23 3:411182 
0.003373125658893474 1:1 2:32162.026 3:411135 
0.00233846629747706 1:1 2:110725.23 3:410959 
0.01583428548721563 1:1 2:233234.34 3:410934 
0.03510271442262967 1:0 2:541088.07 3:411188 
0.03887330542517969 1:0 2:541088.07 3:411047 
0.001507847582824752 1:0 2:224918.01 3:411151 
0.03196306871138618 1:1 2:233234.34 3:410888 
0.03333717789655379 1:1 2:32162.026 3:411063 
0.01990277731587504 1:1 2:110725.23 3:410929 
0.04439496709711826 1:1 2:233234.34 3:411043 
0.003925801070614254 1:1 2:113344.41 3:411258 
0.03733934686046582 1:0 2:541088.07 3:410952 
0.006749732153802956 1:1 2:32162.026 3:411057 
0.02568842488867101 1:1 2:113344.41 3:410988 
0.01122801746953561 1:1 2:32162.026 3:410919 
0.02702164114725527 1:0 2:541088.07 3:411061 
0.01294283129736012 1:0 2:541088.07 3:411166 
0.008458372061228719 1:0 2:210306.16 3:411173 
0.01751478538654683 1:1 2:113344.41 3:411272 
0.06589878112682622 1:0 2:224918.01 3:411080 
0.04443245241304824 1:0 2:210306.16 3:411058 
0.04871303763692002 1:0 2:224918.01 3:411199 
0.03418247688858331 1:1 2:113344.41 3:410886 
0.01504899213874471 1:1 2:53442.595 3:411212 
0.001104517240222189 1:0 2:541088.07 3:411146 
0.0189843400011209 1:0 2:224918.01 3:411012 
0.03804656474678177 1:1 2:53442.595 3:411036 
0.04901562382042011 1:1 2:53442.595 3:410727 
0.002394266712664013 1:1 2:110725.23 3:411024 
0.01894051813030796 1:1 2:32162.026 3:411069 
0.03010535778159016 1:1 2:70408.405 3:411062 
0.01096485749730233 1:1 2:110725.23 3:410991 
0.008320352413776469 1:1 2:53442.595 3:411132 
0.00268032940633593 1:0 2:541088.07 3:411013 
0.002532304998463337 1:0 2:224918.01 3:411169 
0.01835415208867566 1:1 2:113344.41 3:410820 
0.01187906551333003 1:1 2:110725.23 3:411069 
0.003481357427169473 1:1 2:113344.41 3:410748 
0.007547976445932851 1:0 2:224918.01 3:410898 
0.03768542458142791 1:1 2:110725.23 3:410824 
0.003226581107144127 1:0 2:541088.07 3:411014 
0.002802776139571752 1:1 2:32162.026 3:410934 
0.002006116247480753 1:1 2:32162.026 3:411041 
0.01919993047549143 1:1 2:110725.23 3:410758 
0.004143722860768364 1:1 2:233234.34 3:410986 
0.03358385601434893 1:1 2:110725.23 3:411000 
0.0103327275234122 1:1 2:113344.41 3:410912 
0.04576625447104912 1:1 2:70408.405 3:411044 
0.007241899936688185 1:0 2:224918.01 3:411134 
0.01025790200750715 1:1 2:53442.595 3:410917 
0.00753096715889243 1:1 2:32162.026 3:411056 
0.03082832223759227 1:0 2:224918.01 3:410968 
0.005232575985924339 1:1 2:113344.41 3:411005 
0.07014586476910845 1:1 2:110725.23 3:411121 
0.001465303896851643 1:0 2:541088.07 3:410986 
0.001359250130009115 1:0 2:224918.01 3:411292 
0.002969461272078943 1:1 2:233234.34 3:410935 
0.01141959286800411 1:1 2:233234.34 3:411197 
0.01527809346846062 1:1 2:32162.026 3:410889 
0.006473568394844809 1:1 2:70408.405 3:411186 
0.009393427726951129 1:1 2:233234.34 3:411331 
0.001707203220800237 1:1 2:233234.34 3:411148 
0.001634525530756201 1:1 2:70408.405 3:410967 
0.005628120279695439 1:1 2:53442.595 3:411030 
0.001177770896247932 1:1 2:110725.23 3:411056 
0.006501636156412521 1:0 2:210306.16 3:411012 
0.01347583130530756 1:0 2:210306.16 3:411204 
0.03851266719036742 1:0 2:224918.01 3:410857 
0.01735572623141088 1:1 2:53442.595 3:410999 
0.006877877060069489 1:0 2:210306.16 3:411048 
0.007800911845838922 1:1 2:113344.41 3:410849 
0.07445822077342448 1:1 2:113344.41 3:411434 
0.02736396377396712 1:0 2:224918.01 3:411150 
0.006502678343645402 1:1 2:70408.405 3:411185 
0.001353268444963661 1:0 2:224918.01 3:411149 
0.005846914632063116 1:1 2:233234.34 3:411050 
0.01665870174759367 1:1 2:113344.41 3:411187 
0.07001907555586354 1:0 2:210306.16 3:411121 
0.004153911157979538 1:0 2:210306.16 3:411197 
0.002220939438859775 1:1 2:110725.23 3:410943 
0.007913623801434381 1:1 2:233234.34 3:410949 
0.004241192579249931 1:1 2:32162.026 3:411006 
0.002179011210586972 1:1 2:70408.405 3:411017 
0.01126498066875923 1:1 2:53442.595 3:410953 
0.02256256038856577 1:0 2:210306.16 3:411241 
0.01663207943221361 1:1 2:70408.405 3:411170 
0.03810009050765159 1:0 2:210306.16 3:411005 
0.02005327095536859 1:1 2:113344.41 3:411019 
0.02396349633034029 1:1 2:70408.405 3:411135 
0.03819616551295971 1:1 2:32162.026 3:410806 
0.02204964203935018 1:1 2:110725.23 3:410842 
0.0192163223121852 1:1 2:233234.34 3:410963 
0.004132222777389477 1:1 2:110725.23 3:410809 
0.04132381250498248 1:1 2:233234.34 3:410785 
0.02204586856091234 1:0 2:210306.16 3:410773 
0.04658033720230777 1:1 2:70408.405 3:411023 
0.01121481400438801 1:1 2:110725.23 3:410928 
0.007919812645440456 1:1 2:110725.23 3:410976 
0.03612667313152394 1:0 2:541088.07 3:410872 
0.04692585004823785 1:1 2:70408.405 3:411310 
0.03141452028572268 1:1 2:53442.595 3:411007 
0.006029449579424142 1:1 2:110725.23 3:411053 
0.03817619343915569 1:1 2:32162.026 3:411173 
0.01328651560749681 1:1 2:113344.41 3:410940 
0.03801346040641932 1:1 2:113344.41 3:411178 
0.0285098693905159 1:1 2:233234.34 3:411152 
0.007507164765497126 1:1 2:53442.595 3:410941 
0.0125454910234002 1:1 2:233234.34 3:411052 
0.04810925389465555 1:0 2:224918.01 3:411212 
0.007000061373924403 1:1 2:32162.026 3:411310 
0.00206517231791125 1:1 2:110725.23 3:411203 
0.001553759938203923 1:0 2:541088.07 3:411041 
0.03173659073359913 1:1 2:113344.41 3:410949 
0.007266683987524033 1:0 2:541088.07 3:410903 
0.01120058662842866 1:1 2:53442.595 3:411011 
0.001860535744304954 1:1 2:113344.41 3:411003 
0.01107004004164402 1:0 2:224918.01 3:410864 
0.01640470517152646 1:1 2:32162.026 3:410902 
0.002469989718175393 1:1 2:113344.41 3:410926 
0.008081243692545906 1:1 2:53442.595 3:410849 
0.002119668130114187 1:1 2:70408.405 3:411301 
0.02233384462163453 1:0 2:224918.01 3:410949 
0.005171794225332002 1:1 2:113344.41 3:410973 
0.03753105570039959 1:1 2:70408.405 3:410938 
0.04792956703126907 1:0 2:224918.01 3:411186 
0.0218740488031816 1:0 2:210306.16 3:411219 
0.004783636349787804 1:0 2:210306.16 3:411051 
0.008719788744883637 1:1 2:110725.23 3:411068 
0.002829118944417381 1:1 2:233234.34 3:411151 
0.009824035216885251 1:0 2:210306.16 3:411174 
0.01052976588032312 1:0 2:541088.07 3:411030 
0.01041679981833783 1:0 2:210306.16 3:410998 
0.008566124064963392 1:1 2:113344.41 3:411168 
0.04386841119605044 1:0 2:224918.01 3:411173 
0.01040520789408889 1:1 2:233234.34 3:410854 
0.06729833726742213 1:1 2:110725.23 3:411080 
0.04248540734768923 1:1 2:70408.405 3:411002 
0.002638361216864414 1:0 2:210306.16 3:411319 
0.003101961306314863 1:0 2:224918.01 3:410932 
0.0377393487144822 1:1 2:110725.23 3:410850 
0.01104512642846552 1:1 2:32162.026 3:410887 
0.00212752305282512 1:0 2:541088.07 3:411026 
0.001133559071016026 1:0 2:210306.16 3:411069 
0.008332593157062067 1:1 2:113344.41 3:410909 
0.004100851494596706 1:0 2:224918.01 3:411226 
0.03291472949345648 1:1 2:110725.23 3:410967 
0.0118248661521275 1:1 2:70408.405 3:410929 
0.03859849172245366 1:1 2:70408.405 3:410992 
0.07207106656675441 1:1 2:32162.026 3:410706 
0.006739229468449391 1:1 2:113344.41 3:410878 
0.00928717059567984 1:1 2:233234.34 3:410984 
0.003277334555667431 1:1 2:233234.34 3:410917 
0.04086603244469036 1:0 2:210306.16 3:410878 
0.04431495591779887 1:1 2:53442.595 3:411066 
0.006352756387890124 1:1 2:113344.41 3:411214 
0.004947666078717991 1:1 2:32162.026 3:410874 
0.001605079172350324 1:0 2:541088.07 3:411027 
0.004290481049487475 1:1 2:53442.595 3:411173 
0.00139128349036156 1:0 2:210306.16 3:410920 
0.004195346166906614 1:0 2:541088.07 3:410918 
0.004192987603140789 1:1 2:113344.41 3:411217 
0.002110967255520061 1:0 2:541088.07 3:411186 
0.004306015674798713 1:0 2:541088.07 3:411029 
0.001685980280321332 1:0 2:224918.01 3:410901 
0.03312531171535794 1:1 2:113344.41 3:411169 
0.0447915888862217 1:1 2:233234.34 3:411176 
0.002917579755552923 1:1 2:110725.23 3:411055 
0.009256545696248314 1:0 2:224918.01 3:411318 
0.001762996009058312 1:0 2:224918.01 3:410992 
0.011775850886119 1:0 2:541088.07 3:410921 
0.004685643492665471 1:1 2:110725.23 3:411021 
0.003949204778180126 1:0 2:210306.16 3:411131 
0.007934417397798477 1:1 2:113344.41 3:410957 
0.01549418048864643 1:1 2:233234.34 3:411255 
0.001194901938605879 1:1 2:110725.23 3:410992 
0.01634904195711248 1:1 2:113344.41 3:410943 
0.001388933403133105 1:1 2:113344.41 3:411149 
0.03656709907095988 1:1 2:110725.23 3:410754 
0.008023408364154432 1:0 2:210306.16 3:410967 
0.00272640710162307 1:1 2:233234.34 3:410933 
0.004813656572182141 1:0 2:224918.01 3:410951 
0.03716323638015341 1:1 2:110725.23 3:410937 
0.005624757569313858 1:0 2:210306.16 3:411028 
0.007217436916012453 1:0 2:541088.07 3:411054 
0.02894742233950012 1:1 2:53442.595 3:411173 
0.03941885382858543 1:1 2:113344.41 3:410996 
0.0006943439482216818 1:1 2:70408.405 3:410999 
0.03465146760291142 1:1 2:113344.41 3:410855 
0.02444972073649893 1:1 2:110725.23 3:410909 
0.04262303151461556 1:0 2:210306.16 3:411135 
0.07803882613940799 1:0 2:210306.16 3:411424 
0.005382378018889836 1:1 2:113344.41 3:410941 
0.0126453757439647 1:1 2:233234.34 3:411133 
0.006730747753433394 1:1 2:53442.595 3:410871 
0.03675065331279107 1:1 2:113344.41 3:411140 
0.005020488766472805 1:0 2:541088.07 3:410946 
0.006325477197461346 1:0 2:210306.16 3:411012 
0.0136763984414502 1:1 2:32162.026 3:411232 
0.005128123864141125 1:0 2:541088.07 3:410903 
0.01944400092056079 1:1 2:70408.405 3:410793 
0.003682412591285038 1:1 2:53442.595 3:411059 
0.009705910011344014 1:0 2:224918.01 3:411151 
0.02987074142637009 1:0 2:541088.07 3:411230 
0.0154803227033302 1:0 2:541088.07 3:410789 
0.006379267593178209 1:1 2:110725.23 3:411207 
0.00362004269631996 1:1 2:32162.026 3:411068 
0.04465925565486167 1:0 2:224918.01 3:411041 
0.002119957426248847 1:1 2:233234.34 3:410918 
0.004944242551274327 1:1 2:53442.595 3:410986 
0.01126752670805561 1:1 2:32162.026 3:411033 
0.04828553787545715 1:1 2:32162.026 3:411021 
0.03388723970726316 1:1 2:113344.41 3:411149 
0.03458405178050578 1:1 2:233234.34 3:410863 
0.01489072320515923 1:1 2:110725.23 3:411055 
0.03991573850824059 1:0 2:210306.16 3:410974 
0.03407477202923676 1:0 2:210306.16 3:411320 
0.002545024752906272 1:0 2:210306.16 3:411205 
0.03941337461491221 1:1 2:113344.41 3:410933 
0.02986287871423725 1:1 2:53442.595 3:411217 
0.03985415975424332 1:0 2:210306.16 3:410861 
0.01801500514712733 1:0 2:224918.01 3:410933 
0.02243341989886889 1:1 2:113344.41 3:411132 
0.006133022545444441 1:1 2:110725.23 3:411053 
0.03740763445267579 1:1 2:110725.23 3:411137 
0.008037373564364826 1:0 2:210306.16 3:411160 
0.01431867850647656 1:1 2:233234.34 3:410812 
0.02296485323011344 1:1 2:53442.595 3:411134 
0.03755345849791897 1:1 2:233234.34 3:411007 
0.05152730843348077 1:1 2:110725.23 3:411149 
0.005103766824355177 1:1 2:113344.41 3:411021 
0.008789265538243926 1:0 2:541088.07 3:411132 
0.006241064293482599 1:1 2:53442.595 3:411133 
0.03849385965093108 1:1 2:113344.41 3:411210 
0.01217733886415804 1:0 2:541088.07 3:410919 
0.005892839731236286 1:0 2:541088.07 3:411055 
0.004194400146404903 1:1 2:110725.23 3:411233 
0.06884401092271383 1:1 2:233234.34 3:411371 
0.005813668279952525 1:1 2:70408.405 3:411133 
0.04321973793940365 1:1 2:53442.595 3:410830 
0.004888151237159459 1:1 2:110725.23 3:411023 
0.008193467823280613 1:1 2:113344.41 3:411232 
0.0679924507889985 1:1 2:32162.026 3:411121 
0.03446003920417821 1:1 2:113344.41 3:410918 
0.02711655096264851 1:1 2:70408.405 3:410826 
0.004288862732239235 1:1 2:110725.23 3:410990 
0.03882864084501277 1:1 2:113344.41 3:411279 
0.00884197147875105 1:1 2:113344.41 3:411041 
0.003016265903840014 1:1 2:53442.595 3:411029 
0.007343659781346443 1:1 2:70408.405 3:410990 
0.03942349354310414 1:0 2:224918.01 3:410941 
0.03705415207758792 1:0 2:224918.01 3:411061 
0.03573080258849941 1:1 2:70408.405 3:411209 
0.01783767671361149 1:1 2:70408.405 3:411236 
0.04007691034663445 1:1 2:70408.405 3:410869 
0.04174504650193619 1:1 2:113344.41 3:411306 
0.01212101768464109 1:0 2:541088.07 3:411246 
0.00501666556668941 1:1 2:70408.405 3:411070 
0.01199326289831247 1:1 2:110725.23 3:411025 
0.009416661241224263 1:0 2:224918.01 3:410932 
0.005530429021264131 1:1 2:113344.41 3:411185 
0.04248930920526674 1:1 2:110725.23 3:410919 
0.03614679353766821 1:1 2:53442.595 3:411191 
0.04366498927251986 1:1 2:53442.595 3:410922 
0.004505111451945307 1:0 2:541088.07 3:410983 
0.005346195266452657 1:0 2:210306.16 3:411371 
0.04220402588205135 1:1 2:32162.026 3:411203 
0.000906432352619826 1:0 2:541088.07 3:410841 
0.0009494560196610943 1:1 2:53442.595 3:410915 
0.03434645986522459 1:0 2:210306.16 3:411068 
0.03603437359581626 1:1 2:233234.34 3:410982 
0.006387819950018375 1:1 2:233234.34 3:410948 
0.008226960013640157 1:1 2:53442.595 3:411042 
0.03196367516759683 1:1 2:32162.026 3:410896 
0.01087586262520149 1:1 2:32162.026 3:410857 
0.001552753542411758 1:1 2:113344.41 3:410989 
0.01027229686611056 1:1 2:113344.41 3:411186 
0.04221559943080122 1:1 2:32162.026 3:411010 
0.03904507665286062 1:1 2:70408.405 3:411193 
0.0441377072991602 1:1 2:32162.026 3:411163 
0.006333001495405431 1:1 2:110725.23 3:410910 
0.005875947824324886 1:1 2:70408.405 3:411168 
0.04838926401411316 1:1 2:233234.34 3:410995 
0.02582291486581083 1:1 2:32162.026 3:411233 
0.03564963196356313 1:1 2:110725.23 3:411031 
0.04786899058530823 1:1 2:110725.23 3:411196 
0.008380264542156192 1:1 2:110725.23 3:411006 
0.04506921448235666 1:0 2:541088.07 3:411198 
0.006771253241490705 1:0 2:224918.01 3:411131 
0.04333818370942752 1:0 2:224918.01 3:411264 
0.01020828908053061 1:1 2:53442.595 3:411256 
0.01692978995931737 1:1 2:110725.23 3:411133 
0.004307619962411566 1:1 2:32162.026 3:411070 
0.03538442606523889 1:1 2:70408.405 3:410970 
0.02629621685965589 1:1 2:32162.026 3:411212 
0.07897221378801661 1:1 2:113344.41 3:410684 
0.00724173237300325 1:1 2:233234.34 3:411173 
0.03808577071746314 1:1 2:233234.34 3:411236 
0.0006821841127766168 1:1 2:70408.405 3:410767 
0.03836253206305176 1:0 2:541088.07 3:411006 
0.03851184000120268 1:0 2:210306.16 3:411046 
0.0417983710635959 1:1 2:32162.026 3:411301 
0.06633090194097097 1:1 2:70408.405 3:411080 
0.019122267958705 1:0 2:210306.16 3:410887 
0.04540047117490999 1:0 2:210306.16 3:411230 
0.01591910764632866 1:0 2:224918.01 3:410899 
0.004487021996848715 1:1 2:110725.23 3:410992 
0.005058897155725869 1:0 2:210306.16 3:411029 
0.04295893104122778 1:0 2:224918.01 3:410823 
0.04488286037891934 1:0 2:224918.01 3:411021 
0.04626258092362365 1:0 2:541088.07 3:410858 
0.01884984843872749 1:1 2:233234.34 3:411343 
0.04232747152491871 1:0 2:210306.16 3:411036 
0.006220931442677906 1:1 2:32162.026 3:411055 
0.04264071037840504 1:1 2:110725.23 3:411267 
0.01255715379246348 1:1 2:53442.595 3:411138 
0.01380263966035584 1:1 2:32162.026 3:411154 
0.0415976381308845 1:0 2:541088.07 3:410992 
0.04346160166861953 1:1 2:53442.595 3:411201 
0.03902725401791452 1:1 2:113344.41 3:410902 
0.05600985334839625 1:1 2:110725.23 3:411376 
0.0492869816917244 1:1 2:113344.41 3:410778 
0.005832599766370565 1:1 2:113344.41 3:411150 
0.03797392156803062 1:0 2:541088.07 3:411239 
0.04162122909724168 1:1 2:110725.23 3:411015 
0.005854760175757896 1:0 2:541088.07 3:411000 
0.001120257981847362 1:0 2:541088.07 3:410892 
0.03794733540849404 1:1 2:110725.23 3:410953 
0.04039065994593258 1:1 2:70408.405 3:411259 
0.04347666539678815 1:0 2:541088.07 3:410965 
0.04480446063465895 1:1 2:53442.595 3:410934 
0.03638771636694051 1:1 2:32162.026 3:410819 
