svm_type one_class
kernel_type rbf
gamma 0.01
nr_class 2
total_sv 5
rho 1.38524
SV
0.2671915865078642 1:0.54902 2:0.52941 3:0.47059 4:0.56863 5:0.41176 6:0.84314 7:0.41176 8:0.70588 9:0.43137 10:0 11:0 12:0 13:0 14:0 15:0 16:0 17:0 18:0 
0.1616738916439575 1:0.68627 2:0.43137 3:0.60784 4:0.88235 5:0.64706 6:0.86275 7:0.72549 8:0.68627 9:0.76471 10:0 11:0 12:0 13:0 14:0 15:0 16:0 17:0 18:0 
0.391 1:0.84314 2:0.90196 3:0.58824 4:0.47059 5:0.58824 6:0.62745 7:0.47059 8:0.64706 9:0.76471 10:0 11:0 12:0 13:0 14:0 15:0 16:0 17:0 18:0 
0.1227818552326426 1:0.43137 2:0.78431 3:0.56863 4:0.64706 5:0.90196 6:0.54902 7:0.60784 8:0.70588 9:0.66667 10:0 11:0 12:0 13:0 14:0 15:0 16:0 17:0 18:0 
0.4483526666155357 1:0.66667 2:0.41176 3:0.7451 4:0.52941 5:0.54902 6:0.45098 7:0.96078 8:0.62745 9:0.43137 10:0 11:0 12:0 13:0 14:0 15:0 16:0 17:0 18:0 
