svm_type c_svc
kernel_type rbf
gamma 0.333333
nr_class 5
total_sv 71
rho -0.987876 -1.02132 -1.00938 -1.02249 -1.00192 -0.00412354 -1.0058 0.999505 -1.00198 -1.00247
label 5 2 3 1 4
nr_sv 23 14 11 14 9
SV
0 0.7929535972692605 0.3987602561633298 0.623932733206932 0:-0.001735 1:-0.028394 2:0.151819 3:-0.01937 
0.04171943631932919 0.5567625186384672 0.2776991796590755 0.568795744009018 0:-0.03113 1:-0.048369 2:0.169799 3:0.170295 
0 0.9525843841448142 1 0.754147852225086 0:-0.010094 1:0.029387 2:-0.038281 3:-0.071863 
1 1 1 1 0:0.009816 1:0.012056 2:-0.086463 3:-0.029962 
1 1 1 1 0:-0.004294 1:0.022235 2:-0.057101 3:-0.01792 
1 1 1 1 0:0.019433 1:-0.0068 2:-0.012027 3:-0.048234 
0 0 1 0 0:0.007382 1:-0.010968 2:0.023595 3:-0.0142 
0.3243581043431818 0 0 0.1038340528553853 0:-0.009385 1:-0.006328 2:0.031953 3:0.025875 
0.4801557525621667 0 1 0 0:0.002727 1:-0.007848 2:0.006614 3:-0.012851 
1 1 0 1 0:0.004658 1:-0.007871 2:-0.009304 3:0.007464 
1 1 0.9142287107103388 1 0:0.006777 1:-0.008345 2:-0.012555 3:-0.000413 
1 1 0.6870110331263315 0.6951158374557435 0:0.006582 1:-0.007911 2:-0.003704 3:-0.00028 
1 0 0 0 0:-0.000174 1:-0.001647 2:0.004541 3:0.003252 
1 0 0 0 0:-0.000956 1:0.000399 2:0.004916 3:0.002965 
1 0 0 0 0:-0.002916 1:-0.001477 2:0.01181 3:0.012085 
1 0 0.6236251577829578 0 0:-0.001342 1:0.001691 2:0.003774 3:-0.000777 
0 0 1 0 0:-0.003706 1:0.004223 2:0.007808 3:-0.010919 
0 0 1 0 0:-0.005318 1:0.008478 2:0.008986 3:-0.016826 
0 0 0.09867566255796671 0 0:-0.005208 1:0.001619 2:0.022569 3:-0.003293 
0.1537667067753224 1 1 0 0:-0.002898 1:0.006829 2:0.003134 3:-0.00788 
1 0 1 0 0:-0.005412 1:0.00694 2:0.005331 3:0.001229 
1 0.6976994999474582 1 0.2541737802478354 0:-0.006281 1:0.009077 2:-0.000169 3:0.004858 
1 1 0 1 0:-0.002312 1:0.001577 2:0.008245 3:0.009402 
-1 0.2663092253891622 1 0.3628534490719365 0:0.019592 1:0.03346 2:-0.221793 3:0.012634 
-1 1 1 1 0:0.012894 1:-0.015061 2:0.037184 3:0.00808 
-1 1 1 1 0:0.007135 1:-0.004621 2:0.00317 3:-0.005815 
-1 1 1 0 0:0.006659 1:-0.000716 2:-0.009617 3:-0.007723 
-1 1 1 1 0:-0.000364 1:-0.001051 2:0.005371 3:-0.009893 
-1 1 1 1 0:-0.003036 1:-0.004487 2:0.018926 3:-0.006462 
-1 1 1 1 0:0.000173 1:-0.00817 2:0.008542 3:0.004548 
-1 0.7336907746108378 1 0 0:0.006409 1:-0.008558 2:-0.01092 3:-0.000675 
-1 0 1 0 0:0.00111 1:-0.007087 2:-0.005542 3:0.026714 
-1 0 1 0 0:0.005074 1:-0.004054 2:-0.017865 3:0.002811 
-1 1 1 1 0:-0.004981 1:0.00518 2:0.008889 3:-0.007814 
-1 1 1 1 0:-0.002765 1:0.004665 2:0.004015 3:-0.004932 
-1 1 1 0.6371465509280635 0:-0.000355 1:0.005649 2:-0.004171 3:-0.003907 
-1 1 1 1 0:0.0004 1:0.002936 2:-0.002735 3:-0.001697 
-1 -1 1 1 0:-0.010493 1:0.014244 2:-0.024804 3:-0.002106 
-1 -1 1 1 0:-0.005397 1:-0.016495 2:0.056697 3:0.043876 
-1 -1 1 1 0:0.006904 1:-0.010439 2:0.016245 3:-0.002192 
-1 -1 1 1 0:0.00709 1:-0.000473 2:0.007225 3:-0.025049 
-1 -1 1 1 0:0.006152 1:-0.002121 2:-0.022221 3:-0.00406 
-1 -1 1 1 0:0.010107 1:-0.005954 2:-0.022399 3:-0.005695 
-1 -1 1 0 0:0.006653 1:-0.003794 2:-0.014388 3:-0.008653 
-1 -1 1 1 0:0.00965 1:-0.006685 2:-0.016803 3:-0.011562 
-1 -1 1 1 0:-0.002319 1:0.007489 2:-0.000283 3:-0.021486 
-1 -1 1 0 0:-0.005395 1:0.007738 2:0.009853 3:-0.013712 
-1 -1 1 1 0:-0.005595 1:0.00799 2:0.011804 3:-0.014153 
-1 -1 -0 0 0:-0.017755 1:0.016141 2:0.030176 3:-0.050596 
-1 -1 -0 1 0:0.009694 1:0.017452 2:-0.075416 3:-0.04436 
-1 -1 -0.6643279830585627 0 0:0.00508 1:0.013526 2:-0.060119 3:-0.021374 
-1 -1 -1 0 0:0.007064 1:-0.001464 2:0.016564 3:-0.041578 
-1 -1 -1 1 0:0.004426 1:-0.017222 2:0.040537 3:0.025916 
-1 -1 -0.3356720169414373 1 0:0.000405 1:-0.006463 2:0.032376 3:-0.012895 
-1 -1 -1 1 0:-0.001037 1:-0.000586 2:0.011114 3:-0.01125 
-1 -1 -1 1 0:0.003288 1:-0.003313 2:-0.00701 3:-0.003542 
-1 -1 -1 1 0:0.004159 1:0.001026 2:-0.016412 3:-0.005544 
-1 -1 -1 0 0:0.003568 1:0.004135 2:-0.021351 3:-0.00619 
-1 -1 -1 0 0:-0.003251 1:0.0042 2:0.00644 3:-0.013722 
-1 -1 -1 1 0:-0.008512 1:0.010798 2:0.001807 3:0.005144 
-1 -1 -1 1 0:-0.003015 1:0.007158 2:0.000381 3:-0.003417 
-1 -1 -1 1 0:-0.001565 1:0.003565 2:0.003101 3:0.0008 
-1 -1 -1 -1 0:-0.002072 1:0.006627 2:0.000756 3:0.000902 
-1 -1 -1 -1 0:0.002043 1:-0.001658 2:0.006763 3:0.008263 
-1 -1 -1 -1 0:0.019623 1:-0.007684 2:-0.008912 3:-0.040056 
-1 -1 -1 -1 0:0.004476 1:-0.008501 2:0.016554 3:0.012941 
-1 -1 -1 -1 0:0.006017 1:-0.002053 2:-0.016668 3:-0.01055 
-1 -1 -1 -1 0:0.00301 1:-0.008257 2:0.00185 3:0.014431 
-1 -1 -1 -1 0:-0.003167 1:0.00852 2:0.002184 3:-0.01834 
-1 -1 -1 -1 0:-0.001078 1:0.004499 2:0.000124 3:-0.004516 
-1 -1 -1 -1 0:-0.000541 1:0.004503 2:-0.003288 3:-0.000964 
